tree
version=v4
num_class=1
num_tree_per_iteration=1
label_index=0
max_feature_idx=17
objective=lambdarank
feature_names=dist_km is_same_region in_cnt out_cnt age prev_dist_km last_leg_knots_est month_sin month_cos dow_sin dow_cos is_crisis_time dist_x_crisis origin candidate vessel_type dwt_bucket product_family_dom
feature_infos=none [0:1] [0:9478] [1:9476] [-1:52] [0:19805.727612284532] [0:4757.2941085525099] [-1:1] [-1:0.86602540378443871] [-0.97492791218182362:0.97492791218182362] [-0.90096886790241903:1] none none -1:1629:1484:1835:87:703:1281:1939:69:559:955:472:1975:414:773:1451:1456:359:146:1125:1178:1149:1626:823:401:1284:1160:927:57:1928:199:121:1046:545:722:572:785:988:752:1060:1100:423:1066:628:721:687:1276:911:834:349:1754:1842:797:613:1338:384:709:857:54:835:1742:39:1217:1077:1708:1384:1132:344:710:1936:1056:1494:1786:660:918:993:881:1378:1559:329:1643:1968:397:172:795:1532:1935:456:650:958:897:1536:656:1007:478:934:458:1049:1663:365:815:96:271:1570:1003:1801:910:561:1822:1242:1932:1669:1777:764:1419:1760:1020:1722:1947:1503:1781:1848:1970:671:1628:1821:393:1105:209:1128:1267:1446:234:1622:1933:290:809:1315:1563:446:1294:1055:1425:376:619:697:237:1502:475:747:1694:14:1200:589:1785:354:643:1977:1250:1721:274:729:824:1085:1605:1332:1269:187:1732:116:802:1283:496:1147:914:506:1971:1892:1427:109:581:645:27:315:1978:154:790:402:1812:1103:385:1453:377:578:394:1829:1745:1969:596:1434:1798:495:1635:1421:1551:1431:760:481:767:1041:948:78:839:1547:1607:1875:453:753:132:1590:280:334:1859:330:1095:1274:1641:515:1104:1345:1473:856:1575:1640:1516:1535:469:920:1783:552:872:967:184:269:1162:942:1919:741:429:460:1730:1832:1562:62:618:1416:554:348:1775:1793:1713:457:37:403:1050:1672:151:257:742:1357:907:841:288:1764:1889:1533:1913:1743:1750:711:912:342:1771:782:1017:185:1110:758:236:1888:1963:1773:631:1543:946:1289:582:1940:1070:1639:312:1240:1213:1671:1489:53:607:419:1644:1752:197:1482:259:147:1261:1854:188:1139:1526:961:1013:1697:351:893:1075:1797:768:1471:1765:858:1715:1931:1068:205:1836:343:350:866:56:94:1908:73:745:1486:608:549:990:1748:451:882:1770:1910:82:476:905:1542:1678:1512:174:803:591:1042:206:1809:355:513:1001:1366:255:1894:876:1723:1923:467:949:571:585:900:915:1278:1335:1851:1918:298:310:584:1024:1738:1695:540:1258:1496:77:435:1470:424:663:1171:1866:241:51:55:503:651:1387:1135:112:1952:604:944:1642:1879:44:494:1203:1849:436:818:899:973:985:297:1129:1008:1146:45:454:493:814:1914:9:542:1370:32:427:1185:1210:1727:192:461:845:1038:1479:1666:1954:320:388:417:420:684:1157:70:700:926:1012:1398:1480:1929:211:586:706:816:1065:1712:1739:43:1339:1624:5:543:982:1032:1726:1916:830:1174:1291:1597:1850:593:913:1568:123:798:1534:468:1005:1118:1206:1311:1367:1827:707:829:1636:1691:318:576:1391:500:883:1177:1560:1685:1880:111:270:580:868:895:1187:1458:889:1436:1890:532:633:1179:7:218:861:17:22:491:1348:879:433:449:1316:1499:136:510:840:1393:60:954:1400:149:505:1318:430:702:1390:1460:1600:143:279:1045:1159:1463:1877:321:484:661:1256:1561:141:203:738:1504:1778:1915:181:890:1557:1846:122:364:1268:1806:15:20:512:627:871:171:1209:1976:539:641:658:734:877:896:983:1091:1106:1121:1586:1757:253:268:278:806:842:898:1767:47:117:134:739:1086:1151:1686:737:1758:531:836:1855:1860:308:466:678:1014:1321:1361:1364:1659:1684:1828:103:391:1243:1465:1602:1808:108:158:263:326:455:808:1718:291:398:416:1148:1435:1617:139:533:547:654:827:1342:1934:193:265:522:788:1033:1134:1161:1212:1330:1577:1585:1815:1872:220:242:527:794:1301:1716:1791:1893:118:248:267:379:497:546:634:886:976:1044:1447:1682:1700:1858:520:704:936:994:1002:1322:1478:1665:1897:1967:124:690:1244:105:316:807:1084:301:649:957:1464:1651:1974:3:325:638:1021:1237:1360:1508:1874:81:262:1048:1140:1307:1341:1922:153:332:431:551:975:1074:1235:1238:1373:1430:1449:1529:1717:426:555:884:1023:1131:1380:1567:1710:1869:1885:2:85:180:1120:1652:1807:311:369:564:860:894:1025:1052:1089:1224:1231:1233:1299:1333:1616:33:195:630:1111:1234:1239:1379:1865:1942:224:371:691:728:821:1163:1304:1476:1587:1896:339:637:676:909:1800:41:254:404:735:933:1034:1334:1746:1799:1862:563:669:940:969:1168:1232:1287:1406:1527:1637:1744:152:937:1122:1409:1424:498:1270:1285:1818:1891:324:415:679:1376:1564:1772:1886:1900:425:672:757:950:1114:1336:1365:1693:1898:1979:126:688:692:733:743:786:850:1019:1072:1252:1385:1540:173:194:492:597:978:996:1188:1189:1405:1661:1709:428:447:605:718:838:924:977:991:1080:1296:1437:1445:1792:71:80:106:373:575:588:598:964:1022:1305:1428:1462:1472:1761:1826:1959:4:18:382:389:422:603:652:675:730:789:1067:1249:1550:1601:1618:1704:1820:1852:84:219:243:437:567:719:776:779:800:1061:1088:1346:1433:110:155:164:249:309:482:530:646:667:922:941:1108:1138:1201:1251:1310:1383:1396:1598:1740:0:450:504:971:1290:1377:1819:1937:23:135:165:210:284:305:356:480:820:822:930:1069:1083:1175:1410:1528:1555:1603:1814:101:161:163:400:640:666:712:935:981:1071:1116:1133:1429:1443:1514:1711:1751:35:97:148:227:245:252:587:657:874:928:1241:1517:1578:1833:1906:1972:63:232:337:386:477:541:550:655:778:891:1279:1292:1418:1521:1596:1608:1725:1794:1825:1834:1945:127:130:462:483:523:535:538:592:639:759:787:828:1036:1064:1193:1229:1236:1265:1272:1317:1343:1352:1450:1735:1856:1964:34:76:91:98:307:368:375:716:723:792:938:984:1004:1136:1137:1150:1181:1226:1266:1438:1627:1667:1905:1949:1956:1965:145:247:251:261:282:370:395:626:673:715:750:774:825:843:1054:1096:1165:1197:1216:1414:1524:1553:1604:1630:1719:1925:1966:28:182:396:525:558:565:609:681:1026:1271:1288:1308:1328:1397:1509:1537:1538:1544:1554:1579:1583:1675:1731:1873:1921:1955:169:292:294:372:438:463:617:621:668:705:754:771:780:863:1062:1501:1506:1566:1714:1803:12:21:114:335:367:511:601:708:732:819:859:869:880:986:989:1030:1035:1039:1099:1172:1176:1227:1355:1402:1413:1455:1491:1680:1689:1766:1795:1847:59:128:217:222:313:341:353:360:378:573:574:674:736:974:1107:1199:1215:1347:1439:1452:1490:1497:1507:1593:1599:1687:1790:64:68:72:159:160:201:277:293:336:408:434:440:473:474:529:685:769:852:901:932:1006:1015:1130:1223:1230:1293:1363:1475:1510:1581:1706:1920:1938:10:93:150:190:202:229:273:317:331:421:489:548:583:653:713:717:749:751:853:1016:1018:1183:1195:1351:1422:1552:1572:1582:1650:1736:1763:1817:1841:1:100:162:200:215:235:285:299:322:392:459:521:577:595:600:698:748:793:813:919:995:1029:1117:1152:1158:1214:1225:1353:1369:1513:1545:1595:1606:1611:1646:1674:1887:1912:25:276:380:441:553:557:594:622:635:636:642:689:746:875:903:945:953:992:1000:1011:1078:1154:1404:1420 -1:90:1525:1885:728:1671:1492:1995:1323:488:415:428:70:1320:580:1095:1313:651:1497:437:39:1197:1021:1668:1788:1186:956:972:1791:1215:2033:1789:799:1135:2025:361:124:910:1112:1199:1378:1535:947:944:1026:566:746:852:1786:192:206:1371:1081:1892:824:1027:55:721:711:1713:1160:193:680:1983:642:802:811:372:1959:830:244:1629:360:791:1823:377:513:1184:1168:356:1424:1833:822:1459:1564:1806:498:1101:1314:217:197:636:779:242:1991:1790:747:943:617:1821:195:1686:1707:1800:58:284:492:599:885:1842:2027:734:178:964:735:774:150:1710:751:662:593:1131:1487:2022:1311:691:1677:341:1931:2036:1793:1824:641:1018:1254:1974:474:575:2024:762:1882:1988:494:1767:416:397:1526:1379:592:1042:1418:985:1871:1456:406:1322:1752:991:1666:1613:448:643:951:1612:345:1236:2035:446:1103:530:942:1932:20:768:1465:472:1709:21:1530:1632:1731:410:584:996:1766:754:1055:283:573:1085:606:1106:678:1354:1967:878:1084:862:1531:695:940:1649:867:1014:1537:700:924:1070:1347:1715:2026:1664:1847:1996:1828:684:531:673:1872:204:443:1898:1943:582:1163:1647:1963:602:713:1166:1294:1992:300:1037:869:1385:1850:44:1577:918:63:462:1704:829:638:1365:1346:1352:534:1879:112:354:159:863:245:1614:267:476:785:1172:1298:2029:787:1796:1978:469:281:1145:1775:771:1138:389:1601:1687:1324:912:430:346:120:450:483:837:769:1543:1950:696:1304:43:1575:515:661:1461:1670:1856:1545:1089:1090:2031:512:886:1087:1551:1722:2011:152:473:1287:161:1682:1989:433:1926:27:821:884:45:398:1527:1783:1651:1716:793:1333:99:843:851:1255:1987:504:1494:2003:115:685:1656:1780:342:988:1011:872:905:1063:265:366:583:2000:1994:836:1091:1901:1463:2021:1306:1578:1757:550:611:1703:34:581:1330:610:708:162:1108:1338:1760:1857:859:976:1048:1784:1949:1132:1861:2032:179:887:1143:856:1756:1174:1608:1738:1173:1176:1397:1973:171:355:614:732:1776:158:666:784:858:1002:1471:1481:1501:407:429:1105:157:875:949:1831:1130:1514:1541:731:975:1052:1096:30:185:362:773:941:1516:1940:59:194:770:1110:1801:460:808:1299:1751:1777:32:1617:425:668:199:913:978:1194:1467:736:817:846:936:1661:298:390:794:1829:1852:1886:307:1319:1007:1126:1157:1458:1550:1593:1729:2020:2028:901:1137:79:280:519:1674:259:335:344:1144:1279:1440:1568:1652:1768:1896:56:57:119:127:329:669:1654:607:625:790:1136:1419:1483:1657:1745:108:825:1248:1433:1585:1658:1811:1975:1990:2034:894:1041:1565:1646:1697:208:214:761:908:979:1574:1628:247:396:508:671:1495:1499:1558:1917:257:451:725:780:929:1121:1249:1413:438:631:855:1196:1198:1474:1643:1741:663:767:1028:1910:1998:14:156:842:1075:1605:1742:1816:1954:49:147:417:619:782:1023:1035:1552:1644:275:620:1280:1297:1523:1798:1848:97:258:570:727:806:841:1229:1512:1615:160:378:517:597:682:1189:1807:1976:2005:66:325:560:1195:1240:1416:5:326:431:920:1076:1216:1592:1899:1951:28:467:630:699:1243:1348:1387:1681:2004:114:733:1247:1570:1939:659:818:1045:1059:1909:1997:2008:2012:336:471:1080:239:535:1232:1462:1506:1627:1956:118:167:173:789:997:1139:1734:1753:86:605:608:720:860:1183:1340:1540:1642:1817:2030:184:322:844:939:1020:1125:1934:363:523:598:740:984:1047:1100:1404:1595:1986:22:84:210:392:1204:1328:1602:1603:1604:1718:1953:687:1289:1429:1430:1834:1947:1948:164:554:1288:1477:1607:1875:1970:2007:48:53:250:840:1072:1222:1293:1735:1880:418:441:540:925:1409:1417:1622:1705:1851:320:772:958:1187:1693:73:125:290:542:739:974:1074:1276:1606:1765:1843:1897:107:261:805:1043:1307:1326:1360:1599:1653:83:201:209:1268:1431:1858:1969:29:36:163:401:561:888:903:934:945:1038:1140:1191:1484:1520:1743:1827:1884:1933:1962:270:675:1153:1720:1785:54:276:458:672:764:1169:1511:1761:1763:1839:1981:15:273:386:439:626:664:781:899:915:973:1460:1470:1569:1650:384:775:815:1119:1272:1286:1377:1600:1740:1772:1794:1860:1977:61:78:154:510:522:786:850:955:1049:1120:1233:1410:1496:1724:1913:101:269:376:470:538:586:923:926:1000:1295:1355:1358:1485:1683:1728:1859:135:520:547:596:616:647:969:1149:1361:1521:1533:1580:1620:1878:24:52:92:213:224:424:485:507:766:952:1395:1401:1414:1645:1894:1903:40:136:289:383:491:500:759:953:1061:1158:1449:1548:1862:235:350:545:621:833:946:1006:1335:1493:1876:2013:297:367:380:493:748:777:831:1040:1302:1475:1546:1846:1854:33:181:249:391:628:646:783:1088:1277:1341:1567:1662:2016:191:198:226:260:569:1217:1270:1468:1491:1571:1576:1660:1701:1815:1819:1873:1888:2:11:26:271:518:548:730:873:916:977:1146:1177:1269:1274:1339:1393:1406:1427:1432:1505:1971:889:932:1004:1012:1083:1208:1737:1787:1810:1820:2010:74:134:166:225:333:385:676:982:1079:1553:50:82:151:411:499:571:816:1150:1388:1420:1584:1679:1883:1942:1966:1984:3:140:223:287:632:704:834:970:1246:1275:1310:1337:1448:1813:1902:1928:2018:13:41:116:137:169:177:866:1024:1156:1267:1369:1436:1490:1582:1635:1639:1730:1964:188:221:227:277:292:405:482:568:729:803:838:983:1015:1115:1258:1579:1770:1938:1985:122:207:233:922:928:1073:1148:1188:1292:1725:1905:381:464:627:710:797:1064:1364:1398:1596:1678:8:148:202:382:511:559:603:1054:1067:1170:1370:1403:1508:1814:1849:142:143:241:449:544:587:670:800:870:919:1113:1190:1350:1400:1438:2014:94:266:365:409:590:706:812:813:1250:1253:1291:1343:1446:1631:1771:1865:1893:1941:110:334:420:455:456:477:657:667:715:911:1034:1171:1260:1329:1434:1441:1547:1563:1669:1925:1935:1972:0:88:232:255:655:927:967:1050:1159:1263:1273:1518:1659:1691:1726:1747:1797:1804:1808:1916:1920:1968:23:228:572:702:857:1349:1539:1611:1694:1696:2023:180:285:295:339:478:501:709:868:898:1141:1392:1407:1469:1513:1700:1774:1930:12:123:138:370:1308:1394:1396:1442:1587:9:67:121:278:279:301:479:653:993:994:1077:1235:1271:1476:1515:1706:1923:130:231:393:552:601:896:1283:1399:1426:1924:18:155:183:219:809:835:892:948:965:1111:1154:1264:1559:1625:1840:1864:1881:1936:2017:111:128:352:379:521:986:1209:1245:1266:1301:1544:1667:1699:1809:358:426:703:1046:1239:1362:1454:1554:1590:1624:1803:1867:1877:1895:2009:89:176:243:288:553:656:660:719:737:865:891:906:995:1133:1411:1415:1573:1598:1690:1717:1769:1921:25:133:141:308:399:400:421:525:527:558:795:874:1122:1372:1375:1391:1453:1507:1557:1764:1792:1863:1929:189:264:348:357:368:375:387:388:440:509:640:810:814:1016:1224:1228:1517:1626:1736:1750:1762:87:145:168:321:497:658:745:750:890:930:931:1192:1316:1325:1542:1594:1609:1915:1919:10:132:139:296:305:323:337:457:693:1057:1489:1638:1708:1832:1841:72:175:419:435:574:615:674:959:1193:1262:1447:1452:1519:1572:1812:1825:1912:100:216:263:315:359:373:423:432:487:556:567:848:971:1068:1116:1179:1532:1555:1636:1778:1900:37:71:230:309:427:589:694:954:989:1344:1366:1450:1464:1486:1488:1999:98:211:274:442:466:505:652:654:743:753:760:819:987:1373:1529:1589:1779:1906:1911:1957:7:17:254:374:506:562:564:612:639:714:716:801:861:909:963:966:1071:1102:1165:1256:1265:1381:1556:1633:1874:2019:68:102:103:317:349:412:1008:1127:1164:1205:1213:1261:1359:1386:1423:1597:1818:1927:46:109:149:220:272:318:445:463:744:1069:1086:1118:1142:1318:1357:1443:1479:1498:1826:1980:4:35:64:131:200:328:351:414:681:847:1155:1180:1218:1244:1402:1412:1739:42:80:95:190:340:408:496:585:594:650:757:807:879:1363:1405:1692:1845:1937:1944:51:62:91:262:311:338:452:484:516:565:604:788:854:980:1051:1098:1185:1317:1321:1351:1384:1504:1566:1672:1773:1918:1965:105:454:489:623:828:904:933:1237:1285:1305:1367:1390:1435:1637:1733:1754:237:304:313:551:563:742:897:1009:1109:1212:1225:1368:1408:1444:1472:1675:1684:1758:1805:1855:2006:81:104:117:343:827:832:853:1001:1029:1056:1065:1134:1182:1315:1744:1890:2037:69:76:77:403:444:465:576:600:724:792:796:992:1060:1128:1227:1257:1478:1528:1630:1663:1748:1837:1960:19:229:236:248:291:299:302:319:436:524:635:679:692:765:864:881:981:1013:1033:1211:1421:1445:1562:1583:1591:1685:1795:1799:129:165:212:218:222:330:353:364:395:402:555:624:644:690:712:826:876:914:960:1025:1036:1124:1152:1327:1374:1380:1383:1428:1509:1719:1721:1781:1869:1958:60:196:256:268:332:539:549:557:588:591:609:741:804:882:902:937:1147:1220:1226:1259:1281:1309:1336:1382:1437:1698:205:251:347:434:738:798:883:1032:1356:1425:1451:1480:1522:1538:1868:1907:85:240:310:314:495:677:1058:1062:1097:1207:1241:1278:1284:1581:1586:1648:1655:1782:1866:1961:2015:215:234:404:481:514:529:776:778:877:957:1005:1123:1242:1251:1296:1422:1665:1712:1727:1993:2002:146:153:172 -1:7:5:12:6:0:4:2:11:3:1:8:9 -1:0:4:3:2:1 -1:2:1:5:4:3:9:11:6:10:8
tree_sizes=13804 14853 14486 15083 14534 12915 14882 14872 15000 14984 14802 14804 14540 11180 11437 14893 14787 15018 14730 14796 14872 9058 14674 14623 7720 10124 5007 15168 14889 10763 4964 15132 8927 14901 14833 15227 14403 14514 9478 10795 15125 15235 14215 14453 11482 14360 14496 6699 7846 14455 14150 14612 13282 13859 14466 7317 8983 13752 14121 14356 9957 9698 14765 14184 4941 6739 7223 13866 13832 6140 7002 13781 12833 12278 11173 12631 5988 12544 12391 13410 10019 12633 7066 12883 6338 12745 12794 8983 12713 13089 11054 6846 6332 11763 11581 5921 11906 11919 11888 5945 12134 10946 7018 13094 8257 9295 5524 6145 6168 8559 12167 14325 5705 11834 11948 6620 10852 9502 11867 10943 11721 5984 7564 11074 5042 5461 11909 5654 10756 5919 5654 12543 9975 10620 10482 7511 6384

Tree=0
num_leaves=45
num_cat=39
split_feature=2 14 2 13 14 1 14 14 13 13 14 14 2 14 1 14 14 13 13 14 13 14 13 13 14 14 13 13 13 13 13 13 13 13 13 13 14 13 13 13 14 14 13 14
split_gain=2280.15 376.579 270.575 202.345 188.506 161.307 122.707 102.588 95.5894 91.6145 89.085 87.6041 83.5143 81.7187 78.5179 202.266 115.668 109.797 100.35 91.4097 89.8888 71.8625 70.2273 68.1445 63.4954 62.6097 60.2633 59.3431 57.7202 57.5495 54.3668 52.9822 46.7816 42.9821 40.186 39.5815 38.8622 37.0951 35.7729 34.7211 33.6391 32.1149 31.1854 30.6574
threshold=73.500000000000014 0 25.500000000000004 1 2 1.0000000180025095e-35 3 4 5 6 7 8 202.50000000000003 9 1.0000000180025095e-35 10 11 12 13 14 15 16 17 18 19 20 21 22 23 24 25 26 27 28 29 30 31 32 33 34 35 36 37 38
decision_type=10 9 10 9 9 10 9 9 9 9 9 9 10 9 8 9 9 9 9 9 9 9 9 9 9 9 9 9 9 9 9 9 9 9 9 9 9 9 9 9 9 9 9 9
left_child=2 3 13 12 5 10 26 -4 21 -9 22 27 -2 -1 15 18 34 25 -13 29 41 -8 -3 -15 -11 -18 -6 -10 -5 -19 -26 -7 -21 -12 -16 -32 39 -22 -20 -34 42 -17 -39 -37
right_child=1 4 7 28 6 31 8 9 11 24 33 14 -14 23 16 20 17 19 38 32 37 -23 -24 -25 30 -27 -28 -29 -30 -31 35 -33 36 -35 -36 43 -38 40 -40 -41 -42 -43 -44 -45
leaf_value=0.044157795739138243 -0.10678637337941757 0.086335722685600261 0.086515146105444349 0.052335574209619207 0.082165660446739577 -0.046287310444628312 0.092866890843583197 0.089099143232472366 0.092395372023621025 0.041131141911098637 -0.081121488569233971 0.092578527936553995 0.13832940572359753 0.071755107293341613 -0.068470262110844476 0.055077583977791528 0.06213523494728989 0.09518746368879899 0.056433787741386146 -0.049500107174772094 -0.05461078707853978 -0.09078360941914361 -0.088743669254889995 -0.16216692016421605 0.072553225990767398 -0.10811168743863386 -0.087406931110848463 -0.07938812904895684 -0.11599694749747819 -0.10204339903352244 0.05871955968153475 0.13680385666916448 0.081348548025330203 0.10377428868711021 0.12080968359721569 0.012900331617793085 0.06807107354988394 0.067559515763190484 -0.11291556609369746 -0.077579316631247786 0.063986210820403303 -0.11510560008134277 -0.10397332881704105 -0.11226846264983188
leaf_weight=22.709598171524704 17.926310293842107 23.602215888909996 37.167301509063691 20.957350202836096 19.05126182641834 17.319039386697114 20.077120490372181 27.140395099297166 17.680793160572648 37.287987858988345 9.490424355491994 26.792946151923388 61.888941982761025 12.159807050600646 9.5000829072669131 11.483023749664424 25.603964718990028 12.378888662904499 11.819260916672645 33.377063557971269 24.683172622695565 84.90531139774248 75.54716401733458 716.5903342620004 15.490722004324196 62.747179267229512 107.31367201078683 85.352071947418153 249.6064575323835 52.502336676232517 13.227615386713294 422.56914714677259 11.827043153345583 101.16398696228862 324.35913224471733 26.399299180135131 1125.9167698281817 10.238799531944094 146.59090908127837 32.079958680551499 725.8963649305515 39.349072671495378 18.501812133006755 433.15916297398508
leaf_count=2986 3364 1518 3726 2208 1436 1987 965 1949 937 4615 1305 1906 3421 1124 1105 1076 2048 548 1010 4665 3498 13407 13791 162507 1485 10621 19063 14710 47692 9423 1167 20821 599 7546 19840 3793 104871 656 28165 5860 71047 6922 3503 85114
internal_value=6.76509e-10 0.0375064 -0.112969 -0.0606212 0.0468619 0.0957671 0.0361306 -0.0622762 0.040383 -0.0725348 0.0250909 0.0439528 0.074005 -0.152762 0.0474661 0.0256619 0.0608447 0.0466811 -0.0668226 0.0543308 0.0465391 -0.0506397 -0.042975 -0.157345 -0.0823894 -0.0574732 -0.0576909 -0.0443433 -0.101558 -0.0567267 -0.0924584 0.131653 0.0607377 0.0825073 0.113589 -0.0992558 0.0642758 0.0552337 -0.0976794 -0.0276205 0.0594937 -0.0739268 -0.0411998 -0.104957
internal_weight=5381.43 4040.1 1341.33 350.379 3689.72 649.692 3040.03 589.872 2913.66 552.705 209.804 2808.68 79.8153 751.46 2705.65 1015.36 1690.29 1356.43 185.203 1268.08 830.152 104.982 99.1494 728.75 525.565 88.3511 126.365 103.033 270.564 64.8812 488.277 439.888 1203.2 110.654 333.859 472.786 1169.82 779.32 158.41 43.907 754.637 50.8321 28.7406 459.558
internal_count=700000 431534 268466 56685 374849 46968 327881 101849 307382 98123 24160 293010 6785 166617 277363 117783 159580 138635 31081 125966 86702 14372 15309 163631 96174 12669 20499 15647 49900 9971 91559 22808 115995 8851 20945 90074 111330 78704 29175 6459 75206 7998 4159 88907
cat_boundaries=0 61 123 187 250 308 365 426 488 552 615 677 740 801 857 920 974 1038 1099 1156 1220 1284 1345 1407 1468 1530 1589 1651 1712 1767 1829 1889 1953 2015 2077 2133 2197 2261 2323 2384
cat_threshold=0 0 67108864 0 524288 0 9 1048576 268435456 0 0 0 0 0 4 268439552 524288 0 8388608 0 0 0 16777216 0 0 1073741824 0 32 268451840 81920 4096 67108864 0 0 0 0 0 36864 0 0 0 0 0 0 0 0 0 75497472 0 0 0 0 0 540800 0 536903680 536870912 1 0 0 2048 0 1073741824 8388608 8192 0 33554432 0 5120 294912 0 4194304 0 1 0 0 65536 8 268436736 0 1024 0 2147483648 0 0 0 0 8192 0 2147483650 16384 0 16 0 32 0 0 0 0 0 0 0 0 0 0 0 0 1073741824 2147483648 0 0 0 0 4 0 32784 32768 0 0 0 33554432 0 4 0 67108864 64 268435456 4194560 0 16384 0 0 0 0 1048576 0 4096 0 0 0 4194304 131072 0 0 0 0 2048 2147483648 0 2148009984 0 1073741824 268435456 33554432 0 0 33554432 8200 1 256 0 0 2147483648 0 256 0 0 0 0 33554432 0 0 2097216 32 0 128 0 0 0 0 0 0 0 0 2147483648 0 131072 1048576 69632 0 2148007936 0 0 33554432 0 524288 524288 0 0 0 134217728 0 8 1073741824 0 65536 0 0 0 131088 0 0 0 1064976 0 512 0 0 0 0 536870912 0 0 1048576 0 134217728 268435456 0 0 0 0 0 1 0 0 16 2147483648 134217728 0 8196 0 268435456 2147483648 0 0 67108864 0 0 0 4096 0 0 270336 0 0 0 0 1073742080 0 0 2147483650 0 1048576 67108864 0 0 0 16777232 0 0 0 0 1024 0 0 0 262144 4 1024 0 0 65536 4096 20 0 2097152 8 0 1024 0 0 0 536870912 1088 131072 0 0 32768 8388612 0 0 0 0 0 1048576 0 67108864 8192 262144 0 512 0 524288 0 131072 0 17039360 1048577 285212672 0 0 8 16392 0 0 268435456 0 0 4096 0 0 0 0 32768 16 0 804864 16384 0 0 4194304 0 0 0 0 0 32768 0 2 0 0 4194304 524288 128 0 0 0 0 0 512 0 0 536872960 0 512 0 0 0 0 2181171200 0 0 0 0 8388608 16384 16777216 0 0 134217728 0 0 524288 4 0 0 0 36928 0 0 16384 512 0 65536 32 0 0 16384 4097 268435456 0 0 0 0 4194304 4096 16777216 131072 1 0 0 0 4194304 0 32768 0 128 0 0 0 0 64 0 0 0 8192 0 67108864 0 0 0 0 0 0 0 0 0 0 0 4096 0 0 0 0 0 0 0 0 0 2048 0 0 524288 0 0 0 33554432 0 0 33554432 0 0 0 0 0 0 0 0 0 0 0 0 0 0 0 0 0 0 128 0 0 0 0 0 0 0 0 2147483648 0 8192 0 0 0 0 128 0 0 0 0 8 16384 0 4718593 262144 0 0 1073741824 0 0 1 33554432 268435456 4096 0 4096 16 4194304 0 0 0 0 0 32768 64 0 0 0 0 0 0 131072 0 4194304 0 536870912 0 0 0 0 0 0 67108864 128 285212672 0 0 4 0 32 67175424 16 1048576 0 0 0 0 0 0 131072 0 4096 67174408 0 0 16777216 0 0 0 0 32768 16777216 0 16 32 0 2 0 0 536903680 524288 262144 0 0 0 0 0 512 16392 0 0 0 0 0 32768 0 16384 16384 0 64 0 0 1077944320 0 0 0 2147483648 1073741856 0 0 0 2048 0 128 8192 262144 0 0 0 2 0 0 0 262144 0 0 71303168 0 4194304 1 0 0 2050 0 0 0 4 258 0 0 0 0 0 0 2147483648 0 0 0 0 0 0 0 2048 17 0 0 2147745792 2048 0 2415919104 0 0 0 2097152 640 0 8 128 4194304 131072 0 2176 0 0 536870912 0 0 4198400 16384 8388640 0 8 0 262144 0 0 0 0 0 0 2147491840 0 67108864 2304 0 0 16 0 16384 4098 0 0 0 16777216 0 0 0 4096 0 0 0 0 0 1605632 0 2147483652 0 64 0 0 0 4 1024 0 1048576 2097152 512 0 0 0 16 0 0 0 0 0 536870912 0 0 0 526592 0 32 8388608 0 0 0 0 0 8 4 0 0 0 8194 0 8192 0 0 0 0 1048576 0 262240 2 32 0 0 0 2 64 0 0 131072 0 0 0 67108864 0 0 67108864 0 0 0 16400 131072 33556480 131072 2147483648 0 0 0 2048 0 0 0 0 0 2048 0 16 134221824 131072 8388608 0 0 64 134217728 4 268436480 0 0 0 0 0 0 32 0 0 256 0 33554432 0 0 131072 268435456 536870912 0 0 0 4194320 0 0 0 0 0 1073741824 8192 1024 0 0 0 2147483648 67108872 0 4 67108864 0 0 536879104 0 0 0 2147483648 128 0 4194320 67371009 0 16777345 0 536870912 0 0 4096 0 16777216 0 0 0 0 0 0 0 0 0 2147483648 64 0 0 142606336 0 0 0 0 0 0 0 2147483648 8388608 0 17829888 0 33554432 0 0 0 0 0 0 134217728 512 8388608 0 262144 0 1026 0 268435456 0 0 0 2 8388864 0 0 0 9216 0 4227072 150994944 0 2097152 1073741824 0 262144 0 0 0 0 16778240 2147483648 0 1073741825 0 4352 16 2147483648 2 268435456 41943040 0 0 0 0 536870912 8388608 4 0 21069826 0 268435456 0 0 0 0 32 4194304 0 0 0 0 0 131072 0 256 0 0 4096 67108864 0 0 0 0 33554432 0 1048576 0 0 2147483648 0 0 262144 33562624 1048580 0 528 2147483712 0 301989888 0 4194304 0 0 0 0 0 2147483648 0 0 0 32 0 0 4096 8 32 0 0 0 0 0 0 0 0 16777216 0 0 0 0 134217728 4 0 0 128 0 0 0 0 0 0 16384 67108992 0 0 0 0 524288 1056768 0 128 16385 0 524288 16777216 0 0 0 0 0 33554436 0 524424 0 0 1 0 0 0 0 65536 0 2048 537001984 0 0 536870912 524288 0 25165824 0 4194304 0 36864 0 0 0 0 4 0 0 0 0 0 0 0 0 134217728 0 536870912 0 1073741824 4096 0 67108864 1073741824 0 0 1040 524288 0 0 0 0 0 16384 16384 0 0 4194304 0 2097152 2147483648 64 0 0 0 0 0 0 0 0 0 0 0 33554432 536870912 134217728 268443648 16 512 536870912 0 262144 0 0 2048 2147483648 786432 16777216 1073750144 0 0 0 0 0 0 0 0 2147483648 8 16384 0 33792 67584 128 67108864 0 0 0 0 1088 0 0 0 0 134217728 0 0 134219776 8388608 32768 0 0 8650752 513 0 0 2147483648 0 0 1024 32768 2 0 0 0 0 0 0 0 2283798528 0 0 0 512 1081344 0 0 0 0 0 0 65536 8192 0 0 512 12288 0 0 0 0 0 131072 0 0 16842752 0 512 2097153 0 1 0 0 0 0 0 0 131072 1024 2097152 528 0 0 16384 0 0 0 0 268435456 0 0 1073741824 262144 526336 0 0 8 0 2048 2147483648 0 0 268435456 0 33554432 0 0 0 0 0 262144 0 0 0 0 0 0 262144 1 0 131073 524288 1048576 0 0 0 512 8388640 536870912 0 4194304 128 2064 0 0 0 0 0 0 0 8192 0 0 16384 0 2 8320 1073741824 0 0 0 0 1048576 16384 33587200 0 0 0 0 0 4096 4194304 0 0 2097170 1073741824 1040 0 1610616832 0 0 0 0 16 16777216 0 256 0 0 0 0 0 0 0 2048 0 4096 67141648 33554432 0 1073741824 0 0 1048576 0 4 8388608 134217728 0 0 4 0 0 0 1082130432 4 8192 0 0 1048576 0 0 544 0 0 16 33554496 2 0 8 0 536870912 0 0 0 0 0 16 1073741824 0 128 0 0 0 16779264 0 131072 0 0 0 64 0 0 0 262144 0 258 524288 0 0 0 0 0 0 528384 1 32 524288 2097152 0 0 268435456 132 131072 2 0 0 16777232 0 16384 0 0 0 32770 0 0 65536 0 33558528 0 0 0 0 65536 0 0 0 0 0 0 0 67108864 0 0 0 0 0 0 0 4 0 2147483648 263168 256 2097216 0 32 0 1048576 0 67108864 0 0 32 0 2 134219776 0 8388608 0 134217728 0 0 0 0 0 0 0 0 2 0 1024 0 1073741824 0 2228224 0 512 0 0 0 0 0 1024 131328 0 0 4194304 33554434 2097152 0 0 256 1024 0 0 0 264 0 0 0 0 0 0 0 128 16384 16777216 136 1048576 134217728 0 0 64 0 0 0 524288 65540 4608 512 0 2097152 0 0 0 0 0 0 0 0 0 0 0 262144 8192 8 0 268435456 2148532736 0 0 0 0 0 0 0 67108864 0 0 1536 0 0 8388608 1 589824 0 0 0 65536 0 512 67108864 65536 0 0 512 2097280 4 0 0 0 8388608 536870912 2097152 8388608 67108864 1073741824 0 1073741824 0 32769 0 33554432 0 0 0 0 0 0 8192 1073741952 16781312 0 0 32768 0 0 1048576 0 1073741824 2147549184 134217728 0 0 256 32768 0 0 0 0 0 0 134234112 67108896 0 134217728 524288 0 0 0 0 0 0 2 0 0 0 128 0 16416 0 0 2097152 0 0 0 1 8 131072 0 8423424 131072 0 0 33558528 0 0 0 0 0 8192 262144 32768 0 0 0 0 2097664 67108864 2114560 32768 0 0 0 0 603979776 0 0 0 0 0 0 0 8388608 1073741824 1024 0 0 0 8 0 0 0 0 16777216 0 0 2097168 1024 0 8 2147483648 0 0 0 32768 0 0 0 526336 0 0 0 0 262144 0 0 0 8 0 512 0 0 0 0 33554434 0 64 4 0 3072 0 0 4194304 0 8388616 0 0 4194320 134217728 0 32768 4194304 1 129 0 0 524288 0 0 16777216 0 0 16 0 0 256 0 0 0 67108864 262144 32 33685504 4194304 0 4096 134299648 0 67108864 0 24576 1024 32768 0 0 0 1536 1056896 0 2 0 0 64 0 0 0 0 8 67108864 0 0 131088 0 0 0 0 0 536870912 0 134217728 0 0 0 0 16 0 2 0 0 0 0 536870912 0 0 0 0 0 0 0 8421376 0 0 0 67108864 0 92274688 134217728 0 0 0 0 0 8192 8388608 4210688 0 4096 0 2 32 64 0 262144 0 2097152 4194304 131072 0 0 0 0 0 2048 0 0 0 0 0 256 0 0 16384 2147483648 16 33554560 524288 33554432 0 2 2048 0 1024 0 0 131072 0 0 0 0 0 0 0 1879048192 8388610 0 1048576 0 536870912 0 262144 4096 268435456 0 0 0 0 4 0 131072 0 0 0 268435456 512 2097152 8388608 1024 4 268435456 0 0 2097152 0 0 69632 0 16777232 16777216 16777216 0 0 0 528384 0 0 0 0 0 0 16777224 4 33554432 134217728 1 0 0 0 32768 0 0 0 0 2621440 0 0 0 0 0 0 16 0 16777216 0 0 0 0 32 0 0 4 536870912 0 262144 256 268435968 1073741824 32768 0 0 0 2048 0 0 4 134217728 0 33554432 33554432 16 0 2 1048576 16384 1024 0 0 0 0 16777216 0 0 0 0 0 65536 0 0 8192 0 0 4194304 5248 4194304 0 0 1 0 0 0 0 0 262145 1 128 4096 8192 0 0 0 1 0 0 0 0 2 1024 0 33751040 9 16388 0 135267328 2097152 0 512 0 0 0 268435456 2147483648 0 0 0 0 0 0 0 0 0 0 0 2416181248 0 0 0 0 0 8388608 0 0 0 0 0 256 0 67108880 131072 0 0 0 0 0 0 34078720 0 1073742336 0 33554432 0 0 0 0 0 0 1073741824 0 0 1073741824 0 0 0 134217728 8192 1572864 32800 0 0 2415919104 0 8192 0 262144 0 0 0 0 0 0 0 16384 0 65536 2 0 0 134217728 16 0 0 0 0 0 67108864 1 822083584 524288 0 262144 0 69206144 131072 33554433 0 0 0 0 0 33554436 0 0 0 0 0 0 0 32 0 0 0 0 268451842 0 0 1 0 0 67108864 0 0 0 524288 2164260864 33554432 131072 4194308 0 18 2 0 0 0 0 33554432 0 0 0 0 66688 0 33554432 0 0 0 0 0 64 0 67108904 1073741824 0 0 0 0 524288 0 16777216 1024 65536 0 0 4 33554432 8388608 0 0 0 0 2228224 35651584 0 0 0 0 0 67108864 0 0 0 133120 33554432 1073741824 4194304 0 32768 0 0 0 0 0 0 0 0 9437184 0 0 0 0 0 0 0 32768 2147483648 0 131072 0 1 0 0 0 0 262160 2147483648 1073741824 8192 0 0 16777344 524288 1048576 272629760 8388608 8192 0 0 0 1 0 0 1073741824 0 131072 0 16777216 0 0 32768 0 32 1048576 268730368 0 512 32 0 16777216 0 0 262144 8388608 0 0 0 0 0 67108864 0 0 2097152 0 1024 0 0 0 0 1077936384 0 128 0 536870912 2080 0 0 0 0 0 0 16777216 0 0 33554432 0 0 0 8192 2048 8 0 0 33024 0 0 0 0 0 0 0 0 0 0 0 8192 0 256 128 0 0 2097160 0 0 0 1050624 0 0 1 0 0 0 2097152 1075838980 262144 2 8519680 4096 536870912 32768 536870912 0 2 0 0 0 0 0 0 67174400 0 32 0 0 268435456 131072
is_linear=0
shrinkage=0.1


Tree=1
num_leaves=45
num_cat=43
split_feature=2 14 14 14 13 13 13 13 14 13 13 14 13 14 14 13 13 14 13 13 14 14 13 13 14 14 13 13 14 14 13 13 13 13 13 14 14 13 13 14 14 14 13 13
split_gain=2900.83 1031.42 708.221 516.107 436.057 426.229 369.652 366.429 356.521 366.492 308.665 296.393 279.834 276.285 282.014 479.628 310.308 377.877 272.917 260.484 253.202 252.624 373.827 250.254 215.271 209.551 207.583 205.295 331.578 194.838 426.912 192.637 189.411 183.353 176.889 428.93 217.783 270.816 229.95 335.662 180.014 177.463 411.161 188.382
threshold=29.500000000000004 0 1 2 3 4 5 6 7 8 9 10 11 12 13 14 15 16 17 18 19 20 21 22 23 24 25 26 27 28 29 30 31 32 33 34 35 36 37 38 39 40 41 42
decision_type=10 9 9 9 9 9 9 9 9 9 9 9 9 9 9 9 9 9 9 9 9 9 9 9 9 9 9 9 9 9 9 9 9 9 9 9 9 9 9 9 9 9 9 9
left_child=7 5 10 6 11 -2 -4 -1 9 -6 -3 -5 24 18 15 -15 17 -16 -14 -17 -9 22 -18 -7 -10 -19 -8 28 -23 30 -29 -32 -22 -21 35 -31 37 -36 39 -38 -37 42 -40 -43
right_child=1 2 3 4 8 23 26 20 12 -11 -12 -13 13 14 16 19 21 25 -20 33 32 27 -24 -25 -26 -27 -28 29 -30 34 31 -33 -34 -35 36 40 38 -39 41 -41 -42 43 -44 -45
leaf_value=0.091020973663005489 -0.12323618410107169 0.11548743881477404 -0.14073777608965118 0.10587255442109025 0.11927197890108812 0.15664988545080547 -0.11403074258996621 0.062783581560813234 -0.12388954254086344 -0.10944461099013708 -0.1509416193999189 -0.10684291745262973 -0.13685247613942983 -0.10104635237018132 0.096781856879683187 -0.12207958045134033 0.15288083110681186 0.050348198739461864 0.079275922156437098 0.13450503067670058 0.06531203514256835 -0.091781165217923219 -0.10296510160918367 0.068392680207766607 0.1368472919227724 -0.13017473972527643 0.090144732475960457 0.11316201568823325 0.097460600937666841 -0.11036963385707906 0.067055383699191937 -0.12364388285127047 -0.13176684218248788 0.049907451022594966 -0.15048205403831619 -0.04477783971918331 0.07711979406982393 0.083454192772017821 0.11746538618886551 -0.12593848187088905 0.10844074060643832 0.074880887511091912 -0.088954813552352199 0.0025684666092339078
leaf_weight=82.125077256001532 82.387451332062483 44.232269429601729 71.651121739298105 68.542014429345727 75.819402202963829 548.46166775934398 45.466760320588946 71.861548231448978 30.312238834798336 444.21100434730761 380.87516716308892 518.50907664000988 55.192233107984066 187.43339526001364 107.46386475488544 61.827516639605165 58.071297734510154 74.043931948952377 766.16372780781239 387.4006262300536 48.756262740120292 107.05059944093227 408.49041469022632 914.54503496643156 252.98604172281921 444.80151444859803 1181.0604749517515 113.12047320231795 487.75480970693752 126.3179408563301 58.171035956591368 390.51087512122467 1914.8093494583154 859.90520588029176 46.285887818783522 87.981281453743577 104.59275350812823 521.46814014017582 111.01830916665494 305.0336257093586 534.81775593291968 365.11226273793727 496.11945246811956 9160.0029313357081
leaf_count=2489 3221 670 1513 1044 993 3296 946 3360 926 16191 24233 20224 1001 5982 1496 1703 698 1646 11631 3615 1519 4578 14552 19729 5087 16170 17182 1808 8059 4049 1235 19484 171801 20749 845 3180 1709 8714 1552 10180 9937 7194 20423 223386
internal_value=-6.20982e-11 0.0112052 0.00495831 0.00782602 0.00337243 0.0895783 0.0684551 -0.111574 0.0062804 -0.074477 -0.121203 -0.0806497 0.00883677 0.00710332 0.00410776 0.0452343 -0.000283797 -0.0685262 0.0632814 0.0667851 -0.119608 0.00293488 -0.0685811 0.102318 0.105676 -0.103948 0.0817151 0.00554919 0.0624473 0.00277637 -0.0542441 -0.0979971 -0.126567 0.0770434 0.00552111 0.0522287 0.00232751 0.0621081 -0.000947907 -0.073488 0.0864304 0.00205431 -0.049918 0.00541594
internal_weight=23202.8 21085.2 19539.8 19114.7 17816.5 1545.39 1298.18 2117.55 17229.5 520.03 425.107 587.051 16709.5 16426.2 15604.8 1496.57 14108.2 626.309 821.356 1309.13 2035.43 13481.9 466.562 1463.01 283.298 518.845 1226.53 13015.4 594.805 12420.6 561.802 448.682 1963.57 1247.31 11858.8 749.117 11109.6 567.754 10541.9 409.626 622.799 10132.3 607.138 9525.12
internal_count=700000 520831 494585 469682 450041 26246 19641 179169 428773 17184 24903 21268 411589 405576 392944 32049 360895 19312 12632 26067 176680 341583 15250 23025 6013 17816 18128 326333 12637 313696 22527 20719 173320 24364 291169 17166 274003 9559 264444 11889 13117 252555 21975 230580
cat_boundaries=0 64 128 191 248 306 368 425 484 546 606 670 730 794 857 917 978 1042 1104 1166 1229 1293 1348 1409 1470 1530 1589 1648 1709 1772 1832 1893 1949 2011 2073 2137 2198 2259 2318 2379 2443 2505 2566 2627
cat_threshold=0 1064992 0 0 4325632 0 134217728 0 0 0 32 0 0 0 0 2097184 0 524288 0 0 268451840 2 0 0 0 0 2148007936 0 1073741824 0 33554432 0 0 0 0 524289 0 0 8388608 0 0 16 0 0 0 0 4 0 0 2098240 0 0 524416 0 1024 0 0 0 0 8192 0 2147483648 0 131072 0 0 0 0 537395200 0 0 0 0 0 0 0 0 16384 0 4104 1074266120 0 0 512 0 524288 0 67108880 0 4 0 16384 131072 8454144 0 67108864 8 2147483648 0 2048 0 0 0 0 0 0 12 0 0 0 0 0 0 4096 536870912 0 0 8320 0 1073741824 536870912 1 0 0 0 2097152 0 65536 0 67108864 0 8 0 0 524288 0 128 4 0 1048576 1048576 4096 67108864 0 2048 0 131072 0 0 0 0 2048 2147483648 0 1073741824 0 0 0 268435456 32 0 0 4325384 1048576 0 134217728 0 2147483648 0 256 0 4096 0 2097152 0 32768 0 0 0 0 0 0 0 0 134217728 136 0 4096 0 0 524320 0 32 0 0 16 2097152 131072 0 16777216 134217728 268435456 0 2147483648 0 4096 0 2097152 0 0 0 0 0 0 0 0 0 4 0 16793608 1207959552 0 0 0 0 0 0 8388608 2 16809984 8 2 0 0 0 524288 0 0 1 2049 262144 0 1040 0 131072 0 0 1049088 0 0 8388608 0 75497472 0 0 1024 0 0 0 128 1073741824 1048576 150995520 0 0 0 0 0 0 0 33554432 4194304 0 0 256 0 2147483648 0 0 0 33685504 1040 4096 0 0 0 0 2097152 0 0 0 0 0 2048 1073741824 0 8388608 0 67108864 2048 0 0 67108864 0 0 2048 0 0 0 0 0 0 0 0 0 0 4194304 8192 0 2048 0 0 0 524288 32 1024 16384 268439552 128 2147614720 0 134217728 0 131072 0 0 0 2 0 0 0 134217984 0 0 0 268443648 134217728 0 0 0 67108864 1048576 0 0 0 0 67108864 0 0 1073741824 0 2097152 0 16777216 0 0 6144 8388608 512 0 0 0 0 1048576 256 256 0 0 0 0 2147614720 64 0 131072 1056768 0 0 0 0 0 4096 0 0 0 0 134217728 8192 4194320 0 0 2147484160 0 0 0 0 0 262144 0 8320 16777216 512 0 524288 0 524288 512 0 2415919104 0 0 0 1082368 65536 0 64 32 0 0 0 0 0 8 0 0 0 512 0 0 8192 12 268435456 0 0 8390912 0 16777216 402653440 0 0 0 1073745920 0 0 2147483648 32768 0 16384 0 0 0 33554432 1048576 8 65 0 0 0 0 0 0 0 2048 2147483649 0 0 0 2176 0 16384 0 0 0 524288 2 268435456 33554432 0 0 64 0 0 1024 0 0 2147483648 0 0 1073743872 0 0 8 256 64 1 65536 0 0 0 0 0 0 0 2 0 2097152 0 0 524288 4224 671088640 134217728 0 0 0 0 0 0 0 0 0 0 2147483648 0 0 0 0 1073741828 0 16 0 0 1073742080 0 0 43008 67117056 0 0 0 0 0 4096 131104 0 0 0 0 16777216 1 0 4160 67239936 1 4 1048640 0 1024 32768 0 0 0 0 8192 0 0 0 0 0 0 32 0 536903680 67174400 0 0 524288 0 0 0 256 2048 0 0 0 0 0 129 1048576 16514 0 0 0 0 0 0 1073741826 0 0 0 0 0 0 0 0 0 3221225472 4096 16 0 0 301989888 0 0 2147483648 134283264 8388608 0 0 2147483648 0 0 0 0 0 0 2049 16777216 0 8192 2097152 134250496 0 0 0 0 536870912 0 0 0 0 0 268435456 65536 0 0 0 0 0 256 0 0 0 0 67108864 1077936128 131072 65544 0 128 1048576 160 0 2097152 4096 1073741824 0 2048 0 262144 0 0 0 0 1024 514 0 1073741824 32 0 1024 0 16 0 0 0 0 0 128 0 32 262144 536870912 0 0 256 16384 0 65536 0 0 0 64 256 34816 0 0 1024 0 0 0 0 4096 0 0 0 16 0 67108872 16777216 4194304 16384 0 32896 268435456 0 0 0 0 8388608 0 0 16777216 8388608 537133056 0 2048 0 131072 0 0 67108864 0 1048576 536870912 0 0 2048 0 67108864 0 0 0 0 33685504 0 2097152 0 0 0 0 0 0 671088640 0 0 2181038080 0 0 0 65536 32 0 262144 0 16777216 0 0 2147483648 0 131072 0 131072 256 8192 131072 0 0 0 2147483648 2147483648 16384 2359296 0 4096 0 0 0 2 18874368 1073741824 0 0 0 0 0 4096 1073744896 0 0 0 0 0 0 6144 0 0 0 4 0 0 256 0 0 64 0 0 0 2147483652 0 0 33554448 2097152 514 0 16 0 0 0 0 192 64 0 0 0 0 0 16777216 0 0 131072 0 0 0 0 0 0 4 536887296 0 0 128 320 0 0 0 0 0 1024 2147483648 33554432 2147551232 0 0 512 0 589824 0 0 0 0 0 200704 0 0 0 0 268435456 0 1048576 0 0 139264 0 0 4194304 8388608 0 536870912 0 0 4096 0 0 2 2048 0 2147483648 0 0 0 67108864 0 0 134217728 268435456 0 0 0 128 1024 0 0 0 268435456 0 2147483648 0 8 32768 4 0 0 0 301989896 524288 0 0 0 0 0 1 0 32 0 512 1024 0 8 536870912 0 0 0 0 4194304 0 0 0 0 0 1073741952 33558528 0 2049 32 1073741824 8192 0 1048832 134217728 0 0 0 0 0 0 0 268435456 0 0 32768 2147483680 134217728 16384 4 0 0 16 0 0 0 131200 0 65 4194304 0 2097152 557056 0 134217728 65536 0 16384 0 0 0 8192 0 0 0 2097152 0 0 65536 0 0 0 0 0 0 134217729 0 524288 8192 0 16 0 65536 0 524288 0 4096 512 0 1073741824 0 0 0 0 128 0 0 0 0 0 32 1073741824 0 0 0 2097152 512 0 32 33554432 64 2 0 8388608 0 2147483648 32770 0 0 8192 0 0 0 0 0 0 8388608 0 0 0 0 0 8192 2147483712 0 268435456 0 0 0 0 0 134217728 4194304 0 536870976 0 0 528 0 134873088 131072 8192 16384 0 0 0 0 0 0 0 0 0 0 0 0 0 0 32768 0 524288 0 0 0 64 1 8 0 537001984 0 0 0 0 67108864 16777216 32768 536871424 256 0 0 0 65568 16777216 0 0 0 8192 0 268435712 0 4 2 0 32 0 131072 67108864 0 262144 0 0 98304 262144 0 0 0 16384 134217728 0 0 8192 0 65544 0 0 2048 0 64 0 0 0 16777216 32768 0 0 0 0 268436480 0 32768 0 0 0 0 0 0 0 512 4 0 0 131072 512 16 0 0 0 536870912 132 64 0 8 12582912 0 0 0 2147483649 0 0 0 8192 0 150994944 8192 268435456 2147483648 0 0 1048576 0 32768 0 0 256 268435456 0 0 32768 0 32768 0 0 0 0 1048576 0 2097156 1024 0 16777216 65 0 0 16 0 16384 16777216 0 1 1064960 0 0 16384 32769 0 0 0 0 2048 0 0 0 0 8388608 0 128 0 0 8421632 0 0 0 0 0 0 2097152 0 4 0 262400 0 33558528 0 0 0 0 0 131072 32768 0 0 0 0 0 0 0 0 1180674 512 0 262144 0 33554432 2048 0 0 768 131072 0 0 0 0 2050 0 0 134217728 1280 0 268435584 0 16 67108880 0 0 2 8388608 0 33554432 0 128 0 0 0 4194304 1048576 0 8224 0 0 262144 0 2 0 0 134217728 268435456 0 0 0 0 0 0 32768 0 8388608 0 0 0 0 0 8388608 4 0 2 1207963648 0 0 0 1 0 0 0 0 0 268435460 16 67108864 0 0 67108864 0 0 268435456 2049 0 536870912 0 1073741824 0 147456 2048 512 0 8 0 256 4 0 0 536870912 67108864 0 0 0 0 0 4096 0 0 2097152 270532608 0 0 67109376 0 0 2048 0 8388608 0 1 0 0 0 0 0 134217728 536871936 2048 0 0 0 65536 4096 0 0 0 0 0 18874368 0 64 0 0 0 0 131072 131072 0 0 2 0 0 67371008 536870912 131088 2048 32768 0 0 0 0 0 0 0 0 8192 4096 16 0 35651584 0 65536 0 2147483648 64 0 0 0 0 1 33558528 133120 32 0 0 0 524288 545259520 16777216 536870912 0 0 0 16384 2147483648 0 16777216 2048 0 0 0 0 0 0 0 0 2 0 0 0 0 0 33570816 0 67108864 33555456 0 0 16384 0 0 8192 0 0 128 0 512 0 2 1048576 16384 16 0 1048576 512 0 1024 0 0 0 0 0 128 0 0 64 0 0 0 536871936 0 524288 524352 131072 67108864 2621440 0 0 0 16777216 0 8388608 0 16777216 0 524288 0 8 0 67108864 4227072 0 131072 0 8388608 0 0 8388640 0 33685504 512 0 16777216 0 0 17408 0 0 0 0 0 0 0 4 0 134234112 0 0 1024 0 0 128 0 65536 0 0 16 0 2097152 537001984 1074790400 0 268435456 0 4194304 16842752 2097152 0 2 0 2147483648 0 0 0 0 1 524288 134217728 0 0 0 2 0 4 1048576 0 0 0 0 0 4194304 2052 657408 0 0 0 0 131072 1 0 262144 327680 0 0 2 0 16777216 0 0 0 0 1073742336 0 0 262144 0 0 0 0 0 0 2147483648 0 8192 0 0 0 2097152 1024 524288 0 8192 0 0 0 4096 0 2048 0 1 256 0 536870912 0 536872960 8 65536 67633152 17039360 0 0 0 0 2097152 0 0 4 0 1 268435456 8192 0 268435456 0 0 0 270336 0 0 0 33554432 0 0 268435456 0 0 0 278528 16 0 0 2147483648 16 1048576 268435456 512 2147483648 0 0 512 0 0 0 128 0 134217728 0 0 0 2 0 0 0 1074266112 0 0 0 64 0 4194304 0 0 8388608 268435456 0 1024 16384 0 4194304 0 131088 0 0 65536 0 2 1048576 2048 0 0 131072 32 1073741824 0 16777216 0 2147483664 256 0 32768 0 0 0 67108864 0 0 0 0 0 0 0 4 0 0 282624 1073741840 0 0 0 2281701376 2097152 0 0 32768 0 0 0 1048576 0 0 0 0 0 0 4 0 32770 0 512 0 0 0 268435744 0 0 32768 32768 0 2148597792 262144 2147483648 0 134219776 128 0 0 0 262144 33554432 0 0 0 0 2 4194304 524288 0 0 0 0 0 0 0 8388608 1073741824 0 0 0 0 0 1064960 0 67108864 262144 0 0 0 100663296 32768 262176 0 536870912 0 4194304 0 0 0 0 0 0 2097152 0 0 16384 0 0 2097160 0 16384 0 0 0 4 0 0 0 128 512 0 512 0 0 262144 0 0 16779264 2147483650 557056 16777216 1073741824 0 0 1342177280 134217728 0 0 16 0 524288 8 0 128 8388608 0 32 0 0 0 0 67108864 0 0 9216 0 0 0 0 1073741824 0 16777216 0 0 0 0 2048 1114624 0 131104 0 0 0 33554432 0 32768 1048576 0 2 0 1 0 288 0 0 2 0 0 67108864 0 4 0 65536 4096 0 0 0 0 2147483648 1073741952 67108864 0 1 0 32 0 64 0 4 16 128 0 0 0 134217728 0 524288 0 0 0 0 0 0 0 0 0 0 0 0 1024 2147483648 0 0 0 1073741824 8192 2147549184 0 0 268435456 4194304 1107296256 536870912 0 0 0 0 134217728 0 0 0 603979776 131072 0 0 0 4 0 16385 0 536870912 32 0 541065344 128 8519680 2048 0 0 0 16384 0 4096 0 0 1073741824 0 4 0 8192 1048576 0 0 2147483648 0 0 0 32 536870912 1610612736 0 0 0 0 33554432 0 0 0 32 0 524288 0 0 0 0 40960 262144 0 16384 0 0 2147483648 2097152 0 0 0 0 0 0 0 33554944 0 0 8192 1179648 536870912 131072 0 8388608 8388608 4194304 0 0 4096 512 8389120 0 0 33554688 0 268566528 0 0 0 1048577 4 0 0 131072 0 0 0 0 0 4194304 65536 0 0 0 0 16777216 0 1048576 32 2097152 0 0 0 0 8192 0 0 0 0 0 2151677952 65536 0 0 1024 0 32768 1024 0 0 0 0 0 2048 536872960 0 4 67108864 8392704 0 2097216 0 0 0 0 0 0 0 0 4194304 4 4096 16777216 1 1073750016 0 0 0 0 0 2048 0 0 0 16842752 4194304 16384 0 67108864 4 67371008 128 2129920 0 0 0 0 0 0 0 2097152 0 0 0 0 0 65536 0 1179648 0 0 0 134217728 2149580800 0 0 0 536870912 4194304 0 32 65536 0 4194304 0 4194304 128 2048 0 1024 0 1048576 0 524288 131072 0 262144 0 0 1024 64 41943040 0 4096 0 32 0 8388608 0 0 0 0 8388608 0 0 268435456 0 67108864 1024 0 128 0 0 0 16 0 268435456 0 0 570425856 0 0 0 2147483648 16384 524288 0 2097152 0 32 524288 0 2155872384 0 0 0 0 0 0 0 0 2097216 0 2147483648 0 1 0 4194304 0 67108864 0 0 64 16777344 1 2048 0 0 0 0 0 262144 0 0 0 0 32768 0 4 2097152 0 0 0 0 0 0 1 1048576 0 0 0 0 0 0 67108864 1 0 33554688 0 32 4194560 32 0 2147483648 0 0 0 1 0 67108864 0 0 0 512 134225920 2097152 8388608 0 4194304 0 0 0 0 0 2147483648 0 545783808 16777472 8388608 0 0 0 0 0 0 2048 2147483650 0 0 0 0 0 0 2 0 0 0 1073741825 536870912 0 0 1 512 262144 0 0 2048 0 16 0 67108864 0 0 67108864 0 2097152 268468224 2151677952 0 0 0 0 0 0 4 0 64 0 0 4194304 0 4 4194304 2148532224 0 524288 2 0 151126016 0 65536 0 0 0 0 0 4112 0 0 0 0 0 8 0 134217728 1048576 0 4096 0 0 0 1024 0 0 0 0 0 0 1073741824 524288 512 0 256 0 32 0 32 262144 0 1073741824 0 0 0 20480 0 0 0 0 0 0 786432 1048576 0 0 8 402653200 512 1048576 0 0 0 268566528 0 0 0 0 2 16384 0 0 0 32 0 2684354560 0 0 0 0 402653184 262144 2097152 1048576 0 0 1073741824 2147483648 2097152 0 0 32 0 2 0 131072 0 0 0 0 2080 0 0 0 268435456 0 268435456 0 2147487744 8192 0 1 0 0 8194 134217728 0 0 0 0 1 536870912 0 65 16777216 0 16384 0 0 4 262144 0 1073741824 256 4096 268435456 40960 0 0 0 4 0 0 131072 0 0 0 2 4096 0 0 0 128 2 0 0 0 0 4194304 0 32 65536
is_linear=0
shrinkage=0.1


Tree=2
num_leaves=45
num_cat=41
split_feature=3 14 2 14 13 13 13 14 13 14 13 14 13 13 14 14 13 14 13 13 13 1 14 14 13 13 14 13 14 13 13 13 14 14 13 14 13 13 13 14 13 13 14 13
split_gain=1934.05 528.413 341.2 319.081 264.875 264.765 222.171 206.79 229.848 214.839 213.759 210.538 256.508 223.815 307.574 191.671 222.537 191.345 179.549 168.247 166.311 152.336 906.958 650.937 358.039 319.842 303.228 275.351 250.718 246.567 202.208 191.989 190.856 189.982 183.439 191.176 213.977 168.769 154.971 154.563 203.825 168.108 159.227 151.231
threshold=43.500000000000007 0 9.5000000000000018 1 2 3 4 5 6 7 8 9 10 11 12 13 14 15 16 17 18 1.0000000180025095e-35 19 20 21 22 23 24 25 26 27 28 29 30 31 32 33 34 35 36 37 38 39 40
decision_type=10 9 10 9 9 9 9 9 9 9 9 9 9 9 9 9 9 9 9 9 9 8 9 9 9 9 9 9 9 9 9 9 9 9 9 9 9 9 9 9 9 9 9 9
left_child=2 4 19 6 -2 -4 -3 10 9 -9 -5 12 -10 14 -13 16 -15 -7 -19 -1 -14 23 27 25 26 -17 -24 -23 31 32 33 -26 -25 -31 -30 36 -36 -27 -29 40 -37 42 -41 -6
right_child=1 3 5 7 43 17 -8 8 11 -11 -12 13 20 15 -16 21 -18 18 -20 -21 -22 22 24 29 28 37 -28 38 34 30 -32 -33 -34 -35 35 39 -38 -39 -40 41 -42 -43 -44 -45
leaf_value=0.064964434403241511 -0.10716633127192564 0.1112271193366655 0.11739828712314014 -0.11376516887181685 -0.049893153576257281 0.06086515673338691 -0.13457266213099181 0.10216186549804923 -0.1177626051139069 -0.089895820080767547 0.079993640873550612 0.093925657378341049 0.13421303297262457 0.10533420956530617 -0.10507399064322996 0.10650694663264944 -0.10465742330062403 0.093784372366560675 -0.084180417590481754 -0.14436578620387691 0.039205833733960131 -0.10363206200498852 0.07600390472697062 -0.06797635403169168 0.059120810153425497 0.067963823311589455 -0.086752699560042487 -0.041502712467190617 0.082957392784008002 0.087601393100871838 0.015939543030084637 -0.15644101059247856 0.12176308490804227 -0.1380516245139505 0.10529635188066143 -0.11779308460728891 -0.12412870122258396 -0.091088081952388419 0.11512251763590758 0.053982664225657243 0.086265861555334736 0.013307425949057983 -0.1517151443607426 0.10801876809858424
leaf_weight=39.402801108546555 62.267863592132926 37.73540810868144 75.56386467628181 55.079732021316886 63.945716764777899 105.51005015987903 234.64477735478431 61.01655107922852 72.217049000784755 392.01649256329983 627.11155131831765 91.95278300344944 269.33998234197497 54.789461757987738 354.5136949243024 91.673484702594578 266.44912414997816 53.370520279742777 1264.8982048917096 809.06450693169609 632.77624173462391 60.512933626770973 131.95158652216196 59.363945927470922 54.760491386987269 67.087386808358133 658.7862995788455 67.186552744358778 376.01270861830562 43.378217160701752 2695.151316633448 140.80887406598777 334.49723398778588 153.85910886805505 45.108428236097097 46.985501518473029 182.92024759482592 1062.3169529712759 1149.559545872733 52.242204949259758 480.85849658772349 4247.1000801241025 112.02372552920133 857.7980395751074
leaf_count=1703 2149 740 2194 1744 1605 3991 21472 1116 1713 18936 11062 1720 2403 1341 16925 2225 15091 1486 104671 98371 15379 1739 2422 2267 1324 1814 28702 1758 7375 919 73728 8644 5033 6189 773 1234 8619 60611 15875 1200 8055 115648 5554 12480
internal_value=-1.55686e-11 0.0121194 -0.0849039 0.00756336 0.0828002 -0.0562264 -0.0977867 0.00951536 0.0069622 -0.0623809 0.0629321 0.0092399 0.0538533 0.00587851 -0.0629289 0.00835764 -0.0667431 -0.0658036 -0.0763236 -0.13558 0.0687321 0.0103694 0.018829 -0.00426004 0.00367215 -0.0662892 -0.0589833 0.0955368 0.0123929 0.0189324 0.0086735 -0.0961427 0.0921899 -0.0865916 0.0163883 0.0113933 -0.076227 -0.0811267 0.106206 0.0155843 0.0662494 0.00938583 -0.0869524 0.0966458
internal_weight=18795.6 16447.8 2347.81 15463.8 984.012 1499.34 272.38 15191.4 14509.2 453.033 682.191 14056.2 974.333 13081.9 446.466 12635.4 321.239 1423.78 1318.27 848.467 902.116 12314.1 7806.82 4507.33 6529.56 1221.08 790.738 1277.26 5738.82 3286.25 2892.39 195.569 393.861 197.237 5543.25 5167.24 228.029 1129.4 1216.75 4939.21 527.844 4411.37 164.266 921.744
internal_count=700000 487584 212416 471350 16234 112342 22212 449138 436332 20052 12806 416280 19495 396785 18645 378140 16432 110148 106157 100074 17782 361708 208922 152786 189550 64650 31124 19372 158426 88136 80836 9968 7300 7108 148458 141083 9392 62425 17633 131691 9289 122402 6754 14085
cat_boundaries=0 64 128 190 247 306 369 426 486 546 609 671 733 794 858 919 982 1044 1105 1166 1228 1290 1352 1414 1478 1540 1604 1666 1727 1789 1853 1916 1977 2040 2100 2155 2213 2277 2339 2400 2462 2520
cat_threshold=0 1048576 0 0 4325376 0 524288 0 0 0 0 1048576 8388608 0 0 2097152 0 524288 134217728 0 67125248 2 0 536870912 0 0 2148007936 0 1073741824 0 33554432 0 0 0 8 1572864 0 0 0 2147483648 0 256 0 4096 0 0 4 0 0 2097216 0 0 524288 0 1024 0 134217728 128 0 0 0 2147483648 0 131072 0 0 0 0 536870912 2097152 8 0 0 0 0 0 0 16384 0 268439552 8 0 128 0 0 268435520 0 67108864 0 1073741824 0 0 4194304 8454144 0 67125248 8 0 4096 0 0 0 0 2 0 0 4 0 0 0 0 0 0 0 536870912 0 0 8320 128 1073741824 16777216 1 2 0 0 1024 0 256 0 4096 1082130464 16 67108864 0 0 16777216 0 16777216 0 33562624 0 0 17825792 0 0 64 0 0 2147483648 128 262144 0 0 0 0 2147483648 4194304 0 0 2097152 4194304 16 32768 0 0 0 0 0 16777216 0 0 0 0 0 256 16 0 4194304 67108864 0 0 0 0 0 0 16779264 0 0 8 65536 0 4194304 0 0 33685504 4096 2048 524288 8192 0 0 0 524288 0 0 131072 262144 0 1 0 0 0 4096 0 0 0 0 0 335552512 0 262144 0 512 65536 0 0 0 2147483648 524288 0 0 67108864 0 67108864 402653184 0 0 529 64 32769 0 0 0 0 2048 0 64 0 16777220 0 0 0 16384 0 8192 0 0 4096 16777216 1 8192 0 1073872896 0 524288 32 2048 0 2 0 0 0 32768 16785408 536870912 67108864 0 0 0 0 528 0 4096 0 0 0 524288 0 0 2 0 0 0 0 2151677952 0 0 0 0 384 0 0 2098176 0 256 8 0 16416 0 0 256 0 0 0 8388736 1048580 32 0 1048576 0 16777216 0 0 131072 131072 0 0 4096 0 0 0 133120 2048 0 0 4096 0 0 0 131072 0 1 256 0 9437184 536870912 0 16 0 0 0 0 0 32768 0 1024 16 0 0 0 0 0 262144 0 0 143360 0 0 524288 0 32 0 0 262160 0 0 0 16777216 134217728 0 8 3072 0 0 0 268435456 0 0 8388608 1050624 0 0 0 0 0 0 0 67125250 134217728 0 0 0 0 268435456 256 0 0 16809984 0 2 0 0 0 0 0 128 1 2048 0 0 1040 0 0 262144 10240 536871424 16384 12582912 1024 268435456 16777216 0 16384 33554432 0 0 4096 32768 0 2097152 0 0 0 0 65536 8388608 65536 0 2147483648 262144 0 0 0 0 0 40960 0 0 262144 0 134217728 262160 0 0 0 64 0 0 0 0 0 524288 8192 0 512 0 4096 131072 131072 0 0 268435456 33554432 0 0 256 0 1073741824 512 1 0 134230016 0 0 128 4 536870912 0 0 8192 256 0 0 0 256 0 0 4096 0 65536 0 0 0 0 0 0 8388608 1073741824 67108864 1024 135168 16384 67108864 0 0 0 0 0 0 0 4194304 0 0 0 8388608 0 0 128 0 0 4194304 0 0 264192 0 2147483648 0 67108864 64 33554440 0 0 134217728 0 0 0 1 16777216 8192 4096 67108864 2048 0 67108864 64 0 0 0 1049600 0 2147483648 0 1073741824 0 0 2048 268435456 32 0 0 131072 2097152 0 0 0 0 67108864 0 0 4 0 33554432 33554432 256 0 0 2 0 0 0 0 0 0 67108864 0 0 134218752 0 256 16384 128 16384 0 8388608 268439552 0 0 0 0 2 0 131072 0 0 2 0 268469504 0 0 8388608 0 131072 2147483648 0 0 0 0 0 0 0 0 4194304 0 0 0 0 0 8388608 67108864 16 0 0 4194304 8192 1048576 0 0 134217728 0 0 128 0 0 16 0 0 0 0 4194304 8192 4 0 0 0 4194305 0 16384 131072 0 8388608 1 0 4 0 8 4104 0 0 131072 268435456 0 0 0 0 0 655360 12582912 2181038092 0 32768 1075838976 33554432 0 131072 0 0 0 0 0 0 2097152 0 0 0 0 2048 0 0 16 131072 0 0 0 2147483648 0 0 0 0 0 65536 0 0 2048 0 4194304 0 268435456 0 8 0 0 0 2 0 33570816 0 0 268435456 262144 0 2147483648 16 4194304 2048 32768 0 0 41943040 0 0 2097152 0 0 786440 0 33554432 0 32768 0 2048 8192 0 0 0 0 0 0 0 0 1048576 0 0 8 0 0 0 1179648 8192 0 0 32 1073741824 16 64 0 0 0 0 0 0 0 0 524288 0 0 8 0 16777216 4 0 1074528256 2147484160 33554688 0 0 0 16 0 0 0 0 0 0 0 0 16777216 0 2147483648 32768 0 1064960 8 134217728 4194304 0 0 33554432 0 512 524289 0 0 0 8 0 0 0 16384 0 0 570425344 262144 0 0 2080 0 0 65536 0 0 0 0 0 0 128 1024 32768 0 545259520 0 262144 128 268435456 131074 0 1024 1048576 1 65536 0 33554432 512 0 0 512 0 0 0 0 0 0 16 0 32 134217728 0 0 0 0 0 0 258 0 0 0 0 134217728 0 0 0 6 0 67108864 2097152 34 1073741824 0 0 2048 0 0 8192 0 2048 0 131072 134217728 32 0 0 1073741824 16777216 0 65536 0 0 0 262656 0 0 1048608 0 0 1024 0 0 4 0 0 0 65536 0 0 0 16384 0 0 1024 294912 0 0 0 131072 268435456 0 64 8 134742020 1073741824 0 0 0 8 1073741824 1024 0 8192 0 0 0 0 512 0 0 0 4194304 0 0 256 0 0 0 0 8 2147483648 64 0 0 8192 0 0 1342193664 0 0 0 0 0 0 0 134217728 0 0 0 536870912 1 0 1048576 0 65536 2 0 0 69760 0 0 536870912 65536 0 2147483648 0 131072 0 0 16384 0 8421376 0 8192 0 83886080 1073741824 1024 32768 128 0 0 536870976 1073741824 0 16384 0 0 0 1024 0 0 0 2048 0 0 536870912 2097152 268435456 8388608 8 0 128 0 0 33554432 0 0 0 16 512 0 0 268435456 0 0 16777216 0 0 1074266112 1073750016 1073742848 0 0 0 0 524352 536870912 0 524288 0 0 262144 0 0 2147483648 0 0 0 0 4259840 0 33554432 262176 4194305 0 0 0 0 0 4 0 0 0 0 256 65536 0 131072 0 0 0 2147516416 262144 0 4194336 8388608 33554436 0 32768 2097152 37748736 0 0 1 0 0 134217728 536870912 0 2097152 0 67108864 0 0 2048 65536 0 0 8388608 0 0 0 0 2 0 0 0 0 0 0 589824 0 8388608 67108864 0 0 0 0 262144 33554432 0 0 2048 0 0 0 0 2048 0 16 0 268435456 8388608 16777216 0 0 20971520 0 0 0 524352 0 536870912 0 301989888 16777344 0 0 4 0 0 33554432 2097152 0 0 1024 2147483648 1048576 2097152 0 0 0 0 144 1048576 0 128 0 0 536870912 0 0 4096 0 8388608 67108864 524288 0 0 4194304 0 2048 0 0 0 0 0 0 0 2048 0 1082195984 0 2052 0 16777344 0 8912896 0 0 0 0 0 0 0 0 33554432 128 0 0 4 0 0 33816576 0 0 0 0 65536 0 69206016 0 0 0 0 128 524288 0 0 0 0 536870912 0 546308096 4096 134217728 0 262144 8192 0 0 0 0 0 0 276824064 0 0 0 270533888 0 0 32768 32 32 0 2147483648 32 0 536870944 0 512 0 0 0 0 0 0 16 4096 536870912 0 0 0 0 0 0 0 128 0 2048 131072 0 8388608 0 603979776 0 0 0 17412 0 0 16777216 0 0 2048 131072 0 8388608 1 0 0 268435456 36 1073742848 0 2048 1073741824 33554432 8192 524288 0 65536 0 16640 0 1049600 0 0 16 2048 0 0 0 0 16 0 0 0 0 32 0 0 0 0 0 2147483648 16777216 8 0 0 67108864 0 131072 8192 0 0 268435456 0 0 0 4194304 1 0 4096 0 0 0 131072 0 8192 32768 0 524288 0 0 2097152 0 0 0 256 0 32768 274726912 0 32 0 8388608 4194304 0 0 1207959552 0 0 32768 16386 64 0 0 0 0 0 0 0 1024 0 2097152 0 0 0 0 0 0 0 0 16 0 262144 0 0 0 131072 0 0 268435456 2147487760 0 0 16 256 2097152 32 524288 0 33554432 0 0 8388608 134217728 8388608 134218752 32768 0 16777216 0 2 256 0 0 0 0 0 0 0 0 0 0 16416 0 0 4096 0 32 0 0 0 0 32768 0 256 0 0 524288 0 0 536870912 0 268435456 8192 0 4194304 1 4 268435456 0 0 0 0 2097152 0 262144 0 0 256 8388608 0 0 0 0 0 0 0 0 20971520 0 0 256 16384 0 0 8 32 0 0 0 2097152 0 0 0 0 0 0 96 268435968 0 0 0 0 536870913 0 64 33554432 4096 0 0 0 0 0 0 1107296256 1073741824 0 8388608 0 0 0 0 0 0 8192 0 4097 0 67108864 16 256 32768 150999040 1048576 0 37748864 0 33554432 0 0 0 16908288 0 1073741824 0 0 0 2048 0 0 0 0 8224 1 2147483648 2147483648 0 0 0 4 0 0 0 64 0 1024 0 2097152 0 536870913 67108864 0 0 524288 0 2097152 8192 128 0 0 0 0 8388608 0 536870944 2048 0 4096 0 0 0 0 0 16 0 41943040 134217728 0 1073741824 0 0 0 128 0 0 16777216 2147483648 0 1073741825 256 512 8388624 0 268435456 131072 0 0 0 0 16842848 536870912 65536 0 0 4718608 16384 0 0 0 0 0 0 0 32 67108864 0 0 0 0 4 8388608 64 131072 0 0 0 4194304 128 0 0 0 0 0 0 0 0 4096 0 2048 0 0 0 0 32 0 8 0 0 0 262146 0 0 1048576 0 0 0 0 0 0 0 0 0 0 0 0 65536 0 4194304 32768 1140852736 1024 0 2048 32 0 0 0 4096 0 0 16777216 0 2147549184 16797696 0 0 0 128 0 1048576 0 16777216 131072 2 262400 0 0 1048576 67108868 0 0 0 2147483648 0 262144 0 0 0 0 0 0 67108864 0 0 256 0 4194304 0 0 0 0 8388608 0 64 536870912 0 0 0 2129920 16 32768 0 0 4194304 0 0 0 0 0 2147483648 0 0 32 0 0 4194304 128 512 0 0 0 8405008 0 0 0 2147483648 32 32 262144 0 0 0 1536 0 128 0 0 0 0 0 0 0 0 0 2048 0 0 0 0 0 0 67108864 268435456 0 0 131072 0 16 536870912 0 1048576 0 64 0 0 0 1048576 8192 16 0 16777216 0 64 16777216 2048 0 0 4096 0 32768 8388608 0 131328 0 131072 17 0 65536 16777216 16 2147483648 0 1024 0 0 16781312 0 0 16384 0 8388608 4096 0 0 0 0 536887296 0 0 16 512 32768 1073741824 0 256 0 0 0 0 16777216 0 1073741824 128 0 2147483648 0 130 2 0 524288 65536 1589248 0 268500992 134217728 0 0 0 131328 0 8388608 64 0 0 0 0 0 0 0 2147483648 0 0 0 0 0 4194304 524288 1048576 128 8388608 0 0 0 4096 0 268435456 0 0 0 0 100663296 33554432 536870912 0 0 0 0 0 16777217 0 268435456 131088 0 0 0 16384 0 524288 0 0 134217728 0 1024 0 0 0 8388608 128 0 0 0 4096 0 32768 0 1024 2147483648 134221824 0 131072 0 268435456 2147483648 0 0 0 2048 0 67108864 64 32 1 32 0 67108864 0 0 0 266240 0 32 8192 0 2048 0 0 0 0 270336 2049 0 0 128 4194818 0 0 0 0 2048 1048576 0 1073741824 0 0 0 0 0 0 0 4194304 0 0 0 4194304 131072 8192 1024 0 0 4 0 4096 0 0 0 0 8388608 262144 8 33554432 0 0 536870912 0 0 134217728 0 0 8192 8 0 0 2147483648 0 32 33685504 0 4 0 134217728 0 65536 133248 0 0 512 0 0 0 0 16777216 0 262144 16385 0 268443648 0 0 0 262144 16384 32 2 0 0 0 0 0 256 0 4 256 8 2147483648 4 0 0 0 33554432 33554432 0 67108865 0 0 1024 16384 0 8193 1073741952 64 0 0 0 64 0 8 0 33554432 0 0 0 0 256 16 64 0 0 2097152 536870912 0 0 67633280 0 67108866 0 0 0 0 0 0 2048 0 0 0 0 33 0 0 2147483648 4 0 0 20971520 16384 0 0 0 0 0 4210688 0 2048 1024 2097152 0 0 0 0 272 0 1048576 1073741824 0 0 1073741824 0 0 33554432 0 0 2097152 0 0 0 0 0 0 0 32768 0 2147491842 0 0 16809984 0 134217728 0 0 2097152 0 0 642 513 32 134217728 262144 0 0 0 0 520 0 0 0 0 0 8192 0 8192 0 0 0 2 128 0 0 0 0 0 0 1073741824 32 1 32768 256 0 0 0 32768 64 8 0 12 0 4194304 0 1048576 0 0 33554432 0 0 0 512 0 0 4194304 16 1048576 0 0 0 0 0 536870912 16 0 131072 524288 32 0 67108864 0 0 0 8 1073741824 0 33554432 0 32768 0 0 67108864 0 32 131072 131080 0 4194304 0 512 0 0 65536 0 0 4194304 0 8 0 0 0 0 0 16777216 67108880 4718592 64 268435456 268435456 0 0 0 0 0 0 0 1024 16384 0 0 16777232 67239936 8192 0 0 0 0 0 0 1048576 2 0 0 0 0 16 33554432 256 138444800 0 0 268435456 2214592512 0 0 0 0 0 0 0 67108864 2097152 0 4 2 0 67108864 272629760 2050 0 2147483648 0 4096 0 32 0 0 0 2147549184 0 2147485696 0 4 0 0 0 0 0 0 262144 0 0 0 0 536870920 524292 0 0 0 0 0 0 16777728 0 0 0 32768 0 0 131072 0 0 576 0 0 0 0 0 0 1024 0 0 1073741824 0 512 98304 0 0 256 0 0 32768 4 16844800 1048576 0 0 0 2147483648 64 0 0 0 0 0 256 201326592 0 0 268435456 2147483648 8 0 0 8388608 67584 1073741824 0 0 512 0 0 32 1073741824 1048580 0 0 262144
is_linear=0
shrinkage=0.1


Tree=3
num_leaves=45
num_cat=44
split_feature=14 14 14 14 13 13 14 13 14 13 14 14 13 13 13 14 13 14 13 14 13 13 14 14 14 13 13 14 14 13 14 13 14 13 13 14 13 13 13 14 13 14 13 14
split_gain=460.772 398.635 263.229 231.063 252.821 224.254 188.037 201.841 204.161 182.077 173.669 160.253 179.868 151.739 147.271 137.03 130.84 200.081 122.162 117.7 206.921 116.677 111.854 107.045 106.526 194.981 136.699 214.87 146.507 236.761 129.643 123.839 189.279 123.745 105.753 113.318 112.332 102.391 101.412 185.207 99.8635 97.1319 175.846 96.9057
threshold=0 1 2 3 4 5 6 7 8 9 10 11 12 13 14 15 16 17 18 19 20 21 22 23 24 25 26 27 28 29 30 31 32 33 34 35 36 37 38 39 40 41 42 43
decision_type=9 9 9 9 9 9 9 9 9 9 9 9 9 9 9 9 9 9 9 9 9 9 9 9 9 9 9 9 9 9 9 9 9 9 9 9 9 9 9 9 9 9 9 9
left_child=-1 5 -3 4 -4 -2 9 8 -8 -5 -9 12 -12 43 -6 -15 17 -17 -14 20 -18 -7 -19 -10 25 -21 27 -26 29 -28 -29 32 -30 -31 -33 36 -36 -11 39 -37 -16 42 -40 -13
right_child=1 2 3 6 14 21 7 10 23 37 11 13 18 15 40 16 19 22 -20 24 -22 -23 -24 -25 26 -27 28 30 31 33 -32 34 -34 -35 35 38 -38 -39 41 -41 -42 -43 -44 -45
leaf_value=-0.1419100022915552 -0.11504424763639208 -0.1275110647986171 -0.11802199641928468 -0.11522159251146735 0.11353819114446072 -0.067729850267566297 0.081928693959349361 -0.11323097436367542 0.059483712268541766 -0.074341066081317533 -0.13059035046495665 -0.10704636081551322 -0.1058642950143109 -0.10270778328276936 -0.090960901824236093 0.096609479454198399 -0.12583869406801382 0.067126695833850489 0.061905480865667141 -0.12724872509322768 0.07272372135422521 0.096342368474622381 -0.11175160467118872 -0.11040720722440139 0.10302120524746382 0.048686092955514591 -0.11696923771323815 0.094897774509882599 0.091662953044581691 0.11356098080192441 -0.098813366305079753 0.064063952505805946 -0.10726124399935116 0.024206553155258742 -0.091399880959851187 0.10548052615551261 0.062510756306045204 0.065019834526713768 0.081647971745069381 -0.10442148766361536 0.042626781552198234 -0.0075441694087890199 -0.1125458883672089 0.092718181232073177
leaf_weight=215.6333081307821 52.917715162970126 154.24104040442035 78.780785197392106 59.495382746681571 329.75124705582857 42.516143502667546 71.479661360383034 134.02187356166542 38.451459012925625 50.40855386480689 48.9043790679425 20.489516906440258 38.312269199639559 139.04992629215121 53.156734246760607 60.469158859923482 52.110801409929991 36.064294923096895 727.62755269370973 60.692063363268971 380.00443788059056 687.40569410473108 305.28116323892027 392.40580323105678 64.160410802811384 627.61447175219655 83.767093768343329 31.997603971511126 52.328698594123125 223.82932173553854 418.52147396560758 191.22517832089216 253.72406908916309 515.93718010280281 46.73601895198226 43.719020489603281 346.06319458596408 731.96592706721276 54.309430722147226 240.81016614381224 571.43221571110189 7128.1362425005063 199.2161998054944 216.52433754317462
leaf_count=28265 1929 19345 3725 1657 4508 1472 1556 14262 1171 1506 1277 690 1344 14359 2379 1200 1681 1057 16294 1797 9602 11761 21944 28916 1105 14613 3382 794 1297 2773 24756 6382 16761 19461 1401 650 9848 16509 1480 16657 19083 327146 13945 8260
internal_value=-3.694e-11 0.001993 -0.00159488 -0.00022687 0.0451879 0.0711298 -0.00358749 -0.00651223 -0.0680624 0.0419598 -0.00403416 -0.00278455 0.0398333 -0.00576057 0.059745 -0.00741238 -0.00616286 -0.0615156 0.0522575 -0.00408967 0.0464735 0.0859994 -0.0914799 -0.0942401 -0.00619618 0.0315728 -0.00885279 -0.0585464 -0.00606661 0.0339724 -0.0832933 -0.00995549 -0.0714252 0.0523963 -0.00759148 -0.00936902 0.0423837 0.0552159 -0.0120725 -0.0696829 0.0300033 -0.00976059 -0.0694266 0.0718143
internal_weight=16271.7 16056.1 15273.2 15119 1033.12 782.84 14085.9 13244 502.337 841.87 12741.6 12607.6 814.844 11792.8 954.34 11555.8 11416.7 401.815 765.94 11014.9 432.115 729.922 341.345 430.857 10582.8 688.307 9894.48 514.679 9379.8 823.534 450.519 8556.27 306.053 739.767 8250.22 8058.99 392.799 782.374 7666.19 284.529 624.589 7381.66 253.526 237.014
internal_count=700000 671735 656573 637228 29695 15162 607533 587861 31643 19672 556218 541956 18915 523041 25970 514091 499732 24201 17638 475531 11283 13233 23001 30087 464248 16410 447838 26655 421183 25616 25550 395567 18058 22234 377509 371127 11249 18015 359878 17307 21462 342571 15425 8950
cat_boundaries=0 62 126 190 250 312 373 436 496 560 622 686 749 810 870 931 995 1057 1120 1178 1242 1302 1362 1426 1490 1550 1612 1674 1738 1802 1864 1927 1985 2048 2108 2170 2234 2296 2357 2418 2482 2543 2607 2669 2733
cat_threshold=1073741824 0 0 0 536870912 0 34 0 134217728 0 33554432 0 0 16384 0 4096 0 0 0 1073741824 0 524288 512 67141632 0 4 0 0 0 0 0 16 8 0 262144 0 0 0 0 0 16384 4 2097160 0 0 0 0 138412032 0 0 8192 0 0 256 8 1140850688 0 16 0 0 4096 2176 0 16416 0 0 2151809024 0 0 0 0 0 0 1048576 0 0 0 2097152 0 0 0 0 335560704 4096 0 0 0 0 2148007936 0 1073741824 0 301989888 0 0 0 8 1572864 0 0 8388608 2147483648 0 0 0 0 0 0 0 1024 0 2097216 0 0 524288 0 9216 0 262144 8192 0 0 0 2147483648 0 139264 2097152 0 0 0 0 33554436 0 0 0 0 0 0 0 4 4096 16777216 0 0 0 0 4194312 0 0 0 0 0 0 256 0 1082195968 0 524288 131072 0 0 2048 0 0 0 0 0 0 256 0 0 262144 2048 0 268435456 2048 0 17301504 1056 128 0 65536 2 1 524288 0 1073741824 8388608 0 64 0 1048576 192 0 256 0 134217728 0 0 1048576 32 0 1048576 0 67108864 2048 0 524288 0 4194304 0 2 0 536870912 0 0 67108864 3145728 0 0 0 32 8192 131072 4194304 2097153 0 0 0 64 0 256 0 0 0 33554432 4 33024 0 0 0 0 128 0 0 0 0 67108864 0 131072 134217728 0 8397312 0 262144 0 0 0 0 0 512 0 131072 0 150995008 8388608 0 0 1048576 0 0 2147483648 33685504 0 2228256 0 4 0 32768 0 0 0 0 2097168 4096 0 0 0 0 0 0 0 0 32768 0 0 0 0 0 0 0 0 0 0 67108864 0 0 0 0 0 598016 8388608 0 0 8388608 0 0 0 0 0 0 0 536870912 8192 0 0 0 32768 0 0 0 1024 1024 268435456 262144 0 0 0 0 32768 0 0 0 0 33554432 0 32768 134217728 0 0 67108864 1024 0 8388616 0 0 0 65536 256 131072 0 0 71303168 0 32 0 4 100663296 537001984 16779264 0 16 8 0 8388608 32768 65544 0 0 540672 0 8396800 4 0 0 8192 0 16908288 0 0 0 134217728 0 0 0 2148532224 0 0 0 32 0 0 0 0 0 268435456 0 8192 0 256 4 0 0 0 0 536870912 4 0 0 32768 0 4194304 1024 32 0 0 0 0 0 4 128 4194304 4096 0 0 524544 0 32800 576 1 262160 0 67108864 0 16777216 1048576 268435456 0 0 8 256 0 0 0 0 0 0 32768 4 0 0 8421376 33554432 0 8 1073741824 33554432 0 0 0 0 0 0 67108864 83951616 0 2 0 0 0 0 0 128 4096 2048 0 0 16 0 0 0 0 512 0 0 16 0 0 0 0 2048 0 0 33554432 0 0 0 0 0 0 0 262144 0 0 0 8388608 0 0 128 262144 0 0 1073741824 0 32800 548864 0 2147549184 0 0 1024 0 0 8192 0 0 0 65536 0 0 0 536870912 8192 0 0 0 2 67108864 0 0 0 0 100663312 8 0 272 524288 0 128 1048576 16384 0 0 0 16 8194 0 0 0 4 1024 0 2147483648 128 0 0 0 0 257 0 2099200 32768 0 0 32 512 0 0 0 3145728 128 0 0 1024 131072 0 0 0 0 2097152 8192 0 8388608 0 0 0 1077936128 536870912 67108864 0 0 0 32 524288 16777216 0 0 0 0 0 0 524288 32 134227968 0 0 0 0 0 0 16 0 0 0 0 0 4 0 8 0 32 9 0 0 65536 0 4194304 0 134217728 0 0 16640 0 0 0 2147483648 0 4096 0 8 0 0 0 0 4 32 0 0 0 0 32768 0 16640 605030400 0 0 131072 0 0 0 0 0 0 4 66560 32768 16384 4194304 1024 33554432 0 262144 0 2097152 0 0 0 0 64 0 2097152 256 0 4194304 131088 0 0 0 0 2304 2147483648 0 2048 4194305 1 2 0 0 0 268435456 0 0 0 134217728 1048576 0 0 0 0 4096 0 2097152 4194320 0 0 0 0 0 0 0 16779264 0 134742016 0 0 0 0 0 32 0 0 0 0 67108864 0 0 2147483648 0 0 8388608 16777216 524288 256 134217728 0 0 0 1048576 1 0 33554432 2048 131080 0 0 4 0 32768 0 0 0 67108864 8192 0 0 0 0 0 0 0 68157440 0 0 256 0 0 0 16512 4456452 0 8 0 0 0 0 64 0 0 0 32768 32 0 2097152 0 67108864 268435456 2048 2684354560 0 4 1024 2097152 0 0 0 131072 0 160 1048576 0 2097152 16 4096 0 0 0 0 160 0 262144 0 0 2048 0 0 16384 0 0 0 0 8192 0 0 0 8388608 0 0 0 16384 0 16777216 0 4 0 0 32 65536 67108864 16777216 4194304 0 0 32 0 8388624 16777216 0 8192 0 0 268435456 8196 0 128 1280 0 0 0 64 0 1024 32768 0 0 0 8389120 0 131072 0 0 0 2048 4194304 0 0 0 0 536870912 67108864 4 26 68157440 0 0 0 0 0 0 0 0 536870912 0 0 2 16384 0 0 0 0 16 134217728 0 4 0 0 0 0 65536 0 1048576 0 0 0 4096 1073741840 0 0 0 0 4194304 256 0 0 0 2147483648 0 1073741824 0 16416 0 0 32768 256 0 128 0 0 1048576 0 0 0 0 128 0 512 0 12582912 8912896 1 536936480 0 64 0 0 16384 0 0 536870912 0 8 2097152 0 0 0 262144 0 8192 0 40960 8192 2097152 0 0 512 134217728 0 8192 0 0 0 0 0 0 64 0 0 64 32 0 0 0 67108872 256 131074 0 0 2048 262144 0 0 32 0 4194304 0 0 0 0 0 0 1048576 33554560 0 0 1 0 0 0 0 0 0 1 0 1107296256 0 1 134222080 2048 134217728 0 0 0 0 8 0 0 0 0 0 33554944 4325376 0 0 4 2048 0 603979776 0 0 0 1073741952 0 0 0 1073741824 0 32 36864 0 2147483648 2147487744 0 128 0 0 0 0 0 0 0 0 0 1024 268435456 32 0 0 0 268435456 1025 0 0 0 32896 16384 131072 0 0 0 0 2097168 4194304 16777216 0 0 0 0 0 0 0 0 1024 67113088 8208 128 0 0 32768 0 0 0 0 0 0 2164260864 134217728 4 0 4 0 0 16 1048576 16384 0 0 134217728 0 0 8388608 0 0 0 0 0 67108864 64 0 0 0 131072 0 134217728 1073758208 67108866 0 33554432 536870912 256 0 0 16384 0 0 0 0 0 0 0 270336 16777216 0 0 16384 16 4 0 0 0 0 0 1024 0 131072 2048 32768 0 262144 1 0 0 0 20 0 32768 0 0 2097152 0 67141632 131072 0 0 131072 134217728 33554432 0 134217728 0 4096 0 262144 0 0 64 0 0 0 0 6291456 0 16777217 524288 0 0 0 33554432 0 0 0 8192 0 16777216 0 0 131072 0 0 0 0 0 8192 0 0 0 0 64 0 260 0 2147483652 4194304 64 268435456 0 0 0 0 0 0 33554432 0 0 24 67108864 2 0 67108864 0 2151677952 536870912 134217728 536870912 67108992 0 0 8388608 67108864 2097152 1048576 0 0 2415919104 0 4224 0 0 0 0 262144 0 128 0 0 8 1073741826 0 64 2 0 2 32 32 65536 0 64 268503040 0 0 128 256 3221225472 64 0 268435456 0 0 128 0 0 0 0 268435456 2 0 0 0 0 0 0 4194304 0 0 16 4096 0 1073741824 0 0 0 0 0 512 131072 512 0 0 0 512 2097152 0 0 0 2097152 32784 0 2 0 0 0 16 0 0 0 0 0 263168 0 0 0 8 0 2099200 65536 0 0 16777216 2147483648 0 0 0 64 0 0 0 0 0 4096 0 0 67584 512 0 2 134217736 16 1572864 0 2147483648 0 8 0 0 2048 0 0 16 0 0 0 0 0 0 12 65 0 3221291008 0 512 0 0 33554432 0 0 0 0 268435456 0 0 0 0 2048 16779264 8388608 0 268435456 0 0 536870912 2231369729 2097152 0 0 0 8 0 536870912 0 0 0 0 0 0 0 0 0 0 0 268435456 0 0 0 32 32 0 2129920 0 536870920 2097152 0 2048 0 67108864 8192 0 0 0 4 1073741824 33554432 0 2097152 0 0 335806464 0 0 0 0 64 0 134144 0 0 262144 2048 0 0 1073741824 1024 268439552 0 4096 0 8 0 0 0 0 2147484160 0 0 2 2147483648 0 1073741824 0 0 0 0 196608 0 8192 16 0 0 0 0 0 65536 4194304 0 0 0 33554432 0 16777216 0 0 128 0 1077936128 0 8193 8192 0 2048 0 268437504 0 0 1114114 0 1107296320 0 0 0 0 131072 0 134234112 268435456 0 4194304 0 0 0 67108864 0 0 0 0 0 0 0 2048 0 0 0 128 0 2176 256 0 0 1073741824 0 0 0 0 1073741824 0 67108864 0 0 393216 0 0 0 0 0 0 0 0 33554432 0 1073741826 16777224 2 1024 131072 0 524288 0 0 0 65536 147488 0 0 0 16384 0 0 33554432 16384 0 0 0 0 0 0 0 0 67108864 0 0 0 0 16908288 268435456 33554432 4194304 268435456 512 2147483648 4096 0 8192 0 0 0 64 8192 33554432 0 0 0 0 0 2176 0 256 4194304 1 0 0 0 33554432 8912896 262144 2 16 0 0 0 0 0 0 33554496 0 262144 0 65536 0 0 0 8388608 0 0 16384 0 1024 0 0 0 4096 0 0 4 0 1048576 0 1082130432 0 0 0 131072 0 0 0 2101248 32 32768 256 64 0 0 2048 0 0 0 8388608 285212672 2415919104 0 0 65536 0 0 0 8388608 4098 33554432 16384 1 16777216 1 0 0 0 0 33554432 0 4194304 1073741824 64 4096 0 0 0 0 33554432 131072 0 0 0 0 0 128 2048 0 2147483648 0 512 0 2097152 0 0 16 0 16384 0 0 0 0 520 1073741824 0 0 0 0 1024 0 33554432 65536 0 0 33554432 0 0 0 1 0 0 8704 0 0 0 268435456 268468224 0 32 0 33554432 64 131072 0 16777216 0 131072 262144 0 268435456 0 0 0 0 256 67109120 0 0 268435456 2097152 0 0 256 0 64 0 256 0 0 67108864 134217728 0 67108864 32768 2097152 536870912 0 0 0 0 16777216 0 0 0 268435456 0 0 4096 34603008 0 65536 67108864 16384 0 8192 8 1048576 0 0 2147483648 0 0 0 0 131072 1024 0 5120 0 0 8192 2147483664 0 0 0 33554432 0 0 2147483648 0 1048576 0 0 0 2048 65536 524288 64 0 0 0 0 32768 5 0 4 0 0 0 0 0 135266304 0 4096 16384 0 0 1048576 8388608 0 0 268435456 4096 1024 0 0 0 16 1073741856 0 2147516416 0 0 0 8 0 0 2048 0 1073741888 4 262144 16777216 0 0 0 4194304 0 69632 0 0 0 0 2097152 8 0 0 4194304 33554432 0 2 0 0 0 0 8 0 0 4 2048 1073741824 268435456 0 0 0 0 0 512 1 24 0 67108864 0 67108864 0 0 0 0 288 1048576 0 64 0 8388608 0 1024 0 536870912 256 0 0 0 0 0 3221487616 536870912 0 33554432 0 16384 0 262144 0 0 134217728 0 0 0 0 0 1026 2147483648 0 16384 131136 1048576 0 8388608 0 0 0 0 1048576 0 2048 0 0 8388608 33554432 0 512 134217728 0 64 0 0 16777216 1024 128 1073741824 32768 0 0 0 2048 65536 0 393216 16777216 0 1073741824 4 262144 0 0 0 0 4194304 0 69632 0 0 0 0 4 0 0 0 4 256 0 4096 0 0 524288 0 2147485696 128 0 0 2048 0 0 262144 1073741824 0 0 0 4096 33554432 0 0 4096 16384 0 131072 0 0 2147491840 32768 0 1073741824 0 0 0 0 0 0 0 0 0 0 4194304 268435456 0 0 1073741840 0 0 0 1081345 0 0 134217728 0 2097152 0 2 130 66 0 0 536871168 0 0 0 134217728 16386 0 4227072 0 0 0 16 0 0 524288 134217728 0 0 2 0 0 0 0 16777216 0 2147483648 0 4194336 131072 0 0 1024 131072 0 0 0 0 0 0 34078720 0 1048576 0 32 2048 0 2147483648 4 0 0 0 0 0 1024 67141632 16777216 8389632 0 0 2048 128 0 131072 512 0 2 0 0 512 0 268435712 0 0 0 8192 0 0 0 2097152 0 0 0 0 128 33558528 0 0 0 0 0 0 0 0 262144 0 0 0 514 0 0 1 0 0 0 8 0 32768 2147483648 134217728 0 134217730 0 0 0 4096 67109888 65536 0 0 256 0 0 0 0 2048 0 0 0 0 4456448 0 256 0 16 0 0 0 0 0 67584 196608 0 1073741824 0 0 524288 301989888 0 0 0 0 0 0 0 0 0 0 0 258 4 0 0 2148007936 0 2147483648 536870912 0 8 67108864 16384 16384 8388608 0 4194304 536870912 0 268435456 33554432 0 0 0 0 0 0 4 0 8388608 2 0 0 0 0 0 0 135168 131072 32768 4 0 4 0 524288 0 0 1073741824 0 0 16777216 0 8200 8 0 0 0 1024 0 0 0 270532608 2 0 8388608 2147484672 0 128 16777216 0 16777216 0 0 32768 0 1073741824 0 0 16777216 0 0 0 0 0 4 512 1048576 0 0 8192 0 256 0 0 0 0 536870912 1073741824 0 16384 0 536870912 0 8 1073741824 8 0 16777216 0 0 4096 0 0 524288 0 0 67108864 128 0 136314880 4194312 0 0 1048576 0 64 65540 32768 0 0 512 0 2097152 4 0 0 0 0 16777216 536870912 4096 0 0 1 0 0 32 67108864 0 268435456 0 65536 65536 4 0 0 0 0 0 0 0 0 33554432 0 32768 0 0 0 0 32 1048576 1074266112 0 0 2097152 0 0 2147483648 0 4 536870912 0 1024 1073741824 524288 0 0 0 0 0 1048576 0 0 131072 0 0 512 0 4194304 262144 0 0 0 0 0 4352 67108864 2 0 0 32 0 0 0 8388608 1048576 20480 0 32768 0 0 0 0 0 0 2097152 0 2048 8192 0 2048 268435456 0 0 0 0 2048 1 1048576 131200 0 0 0 0 8192 0 4 524290 64 2147483904 512 0 402653184 268435456 0 0 0 4096 8 268435456 0 0 0 0 0 32768 0 32 0 0 0 0 4096 0 0 512 0 0 0 0 2147483648 0 0 0 8192 0 553779200 0 0 0 0 0 0 0 81920 0 0 0 134217728 0 33554432 131072 0 0 0 0 0 1 0 0 0 9 32768 4 0 0 0 64 0 0 0 0 536936448 262144 134217760 0 4096 0 1056 0 8192 67108992 65544 0 0 0 0 8192 0 0 65536 0 0 8388608 0 1 0 128 0 1040 0 0 0 0 2 0 8388608 0 0 0 0 0 2097152 4194304 0 0 4096 0 16793600 0 0 0 0 0 536875008 0 0 262144 0 0 1026 0 0 0 0 0 0 16 4194304 0 0 18874368 32768 0 1 0 128 2147491840 2 0 0 0 0 0 0 0 0 0 0 262144 524800 0 33554432 0 0 8388608 0 65536 65536 0 256
is_linear=0
shrinkage=0.1


Tree=4
num_leaves=45
num_cat=42
split_feature=2 14 14 14 13 13 13 14 13 14 14 13 13 13 14 14 13 14 13 14 13 13 14 13 13 14 13 14 14 13 1 14 14 13 13 14 13 14 13 14 13 14 14 13
split_gain=1182.67 235.69 197.486 173.55 174.763 142.777 131.214 129.139 122.84 243.553 105.476 167.073 103.762 100.732 132.238 100.278 154.974 99.0153 97.1395 92.0133 155.874 108.76 150.968 84.2165 82.1348 75.0687 74.4537 121.266 84.9616 169.866 73.7932 446.482 427.536 211.692 207.189 191.528 181.681 161.784 132.745 118.764 114.387 108.367 105.732 158.616
threshold=26.500000000000004 0 1 2 3 4 5 6 7 8 9 10 11 12 13 14 15 16 17 18 19 20 21 22 23 24 25 26 27 28 1.0000000180025095e-35 29 30 31 32 33 34 35 36 37 38 39 40 41
decision_type=10 9 9 9 9 9 9 9 9 9 9 9 9 9 9 9 9 9 9 9 9 9 9 9 9 9 9 9 9 9 8 9 9 9 9 9 9 9 9 9 9 9 9 9
left_child=3 5 6 -1 -5 -2 -3 12 9 -9 11 -10 -4 14 -12 16 -15 -11 -6 20 -17 22 -21 -22 -7 -20 27 -23 29 -28 31 33 36 -30 35 -34 -32 -36 39 -33 -35 -37 43 -39
right_child=1 2 7 4 18 24 -8 8 10 17 13 -13 -14 15 -16 19 -18 -19 25 21 23 26 -24 -25 -26 -27 28 -29 30 -31 32 38 34 40 37 41 -38 42 -40 -41 -42 -43 -44 -45
leaf_value=0.059177096642111016 -0.10082135452685102 0.087010713567968204 0.070596604684063577 0.076845515402027054 0.059636764318619598 -0.052321759155045083 -0.12967002579873035 0.10774448946218795 0.11247152702636043 0.044231189895983979 -0.10440070302616618 -0.11528995510866871 -0.12490690289770408 0.090870626380172098 0.081090585930109135 -0.1040361143983753 -0.093797945682298697 -0.14188840325563348 0.023525844478121439 0.092443193071624935 -0.085730746203366112 -0.098560840948374556 -0.099373266826700404 0.07843247716564139 0.089369143021294117 -0.11684529644412772 0.099664642849248045 0.07845626742711706 0.094974883293312398 -0.11332397234948528 -0.12643925281470578 0.092243226062715594 0.087701197715111395 0.055845278217366692 -0.10111889131098716 0.040490683262032506 0.085470578355445609 -0.0868613916387935 0.023985126244190583 -0.12803545206277547 -0.084095514225324908 -0.078890408835132805 0.010256397442270779 0.074655502517567141
leaf_weight=71.208829905837774 40.582681798376143 29.007869144901633 30.517452642321587 50.691753011196852 32.370177462697029 41.292893141508102 158.54933941364288 60.323527883738279 34.099669348448515 34.385240942239761 35.912085483781993 136.44813860906288 117.28313616802916 51.34871337749064 341.92149840854108 50.98306393250823 192.52031364385039 168.83088672440499 43.093025439884514 45.3721744120121 27.368866719305515 37.046021107584238 180.40416706725955 470.47347771562636 575.58492552861571 1125.0594506640919 43.52107203938067 292.96569177135825 73.824474219232798 133.03253367263824 35.108292747288942 26.04092139005661 89.258404403924942 59.38567927852273 111.48877231124789 85.143255595117807 947.45899008028209 61.970432318747044 2613.5139975957572 97.947304571047425 817.53729979461059 561.95043699489906 4158.9782535815611 508.53418115153909
leaf_count=3388 1677 1170 1148 1473 1273 1154 21703 887 653 854 2064 11693 12531 1456 11520 1464 12997 10438 3289 934 765 1827 10997 11351 11608 160954 1344 9307 2278 11697 1517 714 2119 2342 7261 2391 17565 2103 85780 5594 58814 31372 146254 10280
internal_value=2.247e-12 0.00879228 0.00578721 -0.0902743 -0.0984659 0.066745 -0.0934499 0.00732117 0.00844226 -0.057885 0.00990669 -0.0660437 -0.0826242 0.0110261 0.0612228 0.00936459 -0.0528666 -0.109799 -0.106442 0.0107256 0.0503496 0.0087011 -0.0585398 0.0678972 0.0792012 -0.111511 0.0101658 0.0562706 0.00865372 -0.0582935 0.00986278 -0.00144441 0.0162352 -0.0601158 0.00543551 -0.0436308 0.0767012 0.0129735 0.0190823 -0.0783394 -0.0740959 -0.0628053 0.0158707 0.0559168
internal_weight=14900.3 13577.9 12920.5 1322.42 1251.21 657.461 187.557 12732.9 12585.1 263.54 12321.6 170.548 147.801 12151 377.834 11773.2 243.869 203.216 1200.52 11529.3 548.825 10980.5 225.776 497.842 616.878 1168.15 10754.7 330.012 10424.7 176.554 10248.1 3688.25 6559.89 950.747 5577.32 736.352 982.567 4840.97 2737.5 123.988 876.923 647.094 4729.48 570.505
internal_count=700000 529623 515184 170377 166989 14439 22873 492311 478632 12179 466453 12346 13679 454107 13584 440523 14453 11292 165516 426070 13580 412490 11931 12116 12762 164243 400559 11134 389425 13041 376384 155522 220862 63434 201780 35882 19082 165898 92088 6308 61156 33763 158637 12383
cat_boundaries=0 64 128 190 247 308 369 433 492 555 618 680 742 804 867 929 991 1054 1115 1176 1237 1297 1361 1423 1485 1548 1608 1667 1729 1791 1853 1917 1977 2037 2101 2163 2226 2287 2350 2410 2471 2534 2596
cat_threshold=0 1048576 0 0 4325632 0 0 0 0 0 0 1048576 0 262144 0 2099200 0 0 134217728 0 67125248 4098 1048576 262144 0 0 524288 0 1073741824 2048 33554432 0 524288 0 8 1572864 0 0 0 2147483648 0 0 0 0 0 0 4 256 0 2097216 0 0 524288 0 0 0 0 0 0 4096 0 2147483648 0 131072 0 0 0 0 536870912 0 0 0 2 0 0 0 0 24580 0 4096 8 0 0 0 0 134742032 0 67108865 0 4 0 0 0 8454144 0 4194304 8 0 0 2048 0 0 0 0 0 0 12 0 4194304 0 0 0 0 4096 536870912 0 0 128 0 1610612736 0 1 524290 0 0 0 0 65600 0 0 0 16384 0 0 1048576 0 4096 65536 0 0 16777216 0 0 0 0 0 0 0 0 0 0 2 268697600 0 536904192 524288 262144 0 0 0 0 0 0 16392 0 0 2048 512 0 32832 262144 0 16384 128 192 0 524292 0 0 0 2 2147483648 32 0 0 8192 0 0 262144 268435456 0 0 0 0 4194304 16384 256 0 0 0 0 0 2147483648 0 0 131072 0 2097160 0 0 0 0 0 0 0 0 0 134217728 268443648 4194304 512 0 0 0 0 512 2048 2147483648 786688 0 8320 0 0 1073741952 524288 0 0 512 0 2147483648 0 16384 128 32768 67584 128 67108864 0 0 8388608 0 67108864 0 0 0 0 0 8388608 0 0 0 1073741824 100663296 0 0 0 1 0 0 0 4259840 0 0 4 33024 2048 0 0 32768 67108864 536870912 4096 0 0 0 0 1024 16777218 0 0 0 0 0 0 16 0 0 67108864 0 0 0 4194304 33554432 0 16777216 0 0 8 0 0 0 0 262144 0 131072 8192 0 0 0 16777216 0 0 256 131072 0 32768 1 2048 1024 268468224 0 0 4194304 0 0 0 67108864 67108864 10485760 0 0 16 65536 536870912 590080 0 0 524292 0 0 8192 0 134217728 0 0 4194304 0 0 0 1048576 0 0 32768 0 0 0 0 0 532480 0 4 0 0 524288 0 0 0 524288 0 536870912 0 0 0 0 0 1074003968 0 0 0 0 285212672 33554432 16 65536 64 0 16384 131072 0 0 83902464 0 2147483648 0 0 0 32768 134217792 0 64 0 0 16777216 0 1048576 2048 0 16 16777216 0 0 32 0 0 1048584 0 0 0 0 0 0 0 256 262144 8192 0 0 16 0 131072 0 16777216 1048577 4 8 0 0 4096 2 0 0 0 8388608 0 268435456 0 0 0 256 0 0 0 67108864 0 2147483648 0 0 65536 4 0 34 16809984 0 0 0 0 4194320 0 0 0 0 0 0 67108864 16 0 131072 264192 0 1049088 0 512 134234112 128 0 0 0 8 0 0 0 4 0 33587216 0 2097152 285212672 262400 0 536870912 0 8388608 65536 8388608 0 0 0 257 0 1 0 0 8 0 0 2097152 0 0 0 16 0 536870912 128 0 0 0 0 134742016 0 0 0 2147483648 0 0 16 0 0 0 0 67108864 0 16 0 0 32 0 0 0 0 0 0 8 0 2097156 524288 131072 0 0 0 0 268435456 0 4096 1050880 0 2097152 0 268435456 0 0 32 0 16 0 33554432 4096 1024 0 16384 0 0 2 24 524288 268435458 0 0 0 32 0 0 524288 8388608 0 2147483648 64 128 0 0 0 0 0 0 0 0 0 0 80 0 16777216 32 0 0 4096 0 0 2 0 4128 128 1 0 1088 0 0 0 512 0 0 0 64 0 32 294920 16777472 0 0 16384 0 2 0 0 128 8192 0 65536 0 0 0 0 0 4 0 0 16384 2147483648 0 0 0 0 0 0 16777232 0 0 0 0 1048576 36864 131072 0 0 0 0 0 0 0 0 32898 0 536887296 0 1 0 4096 67141632 1 0 268435536 0 0 0 131072 0 1 0 33562624 0 0 0 0 0 33554432 0 0 536870912 1024 0 512 0 0 0 0 0 2048 67584 0 0 0 0 0 0 0 0 67108864 0 1073741824 2048 0 0 0 32768 160 0 0 0 0 16777216 2 536870912 0 0 268436480 0 0 0 128 2147549184 1073741824 32 32768 0 0 16 0 32 0 0 0 0 0 0 0 1024 0 32 0 0 0 65536 0 0 2 0 0 2048 8388608 0 16777216 0 134217728 0 16777216 4096 134217728 2 0 0 0 201326592 8 1 0 134217728 16384 0 0 0 0 0 1 1048576 0 0 0 2147483904 0 0 0 256 0 0 67108864 0 2048 256 1073741824 2048 0 0 1048576 0 0 0 16 0 0 0 0 0 0 2147483648 0 135266304 67108864 2048 0 2097152 0 0 34603008 0 0 0 6 0 0 0 16777216 2147483648 262144 0 0 0 0 0 2048 0 4096 0 0 0 2048 0 0 0 2147483648 0 32768 33554432 0 8388608 262152 524288 0 0 0 8388608 0 134217728 0 1 1073741824 0 0 0 16384 0 0 0 2097152 0 0 16432 0 0 39845888 0 67109120 0 65536 0 1024 0 1 1024 0 0 0 0 1073741824 0 0 32768 0 0 0 8388640 32768 0 0 0 0 524288 0 0 0 0 0 0 8192 0 0 1280 0 0 1048576 0 0 2147516416 0 64 131072 0 524296 512 0 0 0 0 0 0 1040 0 36864 288 0 2 4194304 0 67108864 0 256 2048 0 4194304 0 0 0 0 0 0 0 32768 0 0 2147745792 0 18 8192 8388608 0 0 0 0 0 0 33570816 0 0 3758096384 32 16384 0 8425472 0 16384 256 2147483648 0 0 0 0 0 0 33556480 0 0 0 0 3 0 0 67117056 0 32768 262144 256 0 0 0 0 0 0 0 0 0 65536 0 0 0 2 131072 8192 0 0 0 0 0 5275648 0 0 0 128 0 0 0 1077936128 0 0 0 0 0 4194304 2097152 2097152 524288 0 0 0 8192 0 0 1073758208 8192 0 0 0 0 33554432 0 0 0 16 0 536879104 0 268500992 0 163840 0 0 0 16777216 1073741824 16777216 0 335544320 134217728 0 0 16 0 1342177280 8 0 0 8388608 0 0 0 0 65536 1024 4194304 0 67125248 8192 8388616 2147483648 0 16388 0 8388608 0 0 0 9437184 0 69206016 32 0 0 0 0 0 0 1073741824 536870912 0 0 2147485696 0 0 0 268435456 0 0 0 0 1 0 2147483648 0 0 0 0 65536 4096 0 0 16 0 0 1024 0 0 0 0 16785408 0 134479872 0 0 131072 1024 0 128 8405504 0 0 0 0 262144 0 0 16384 0 131584 0 0 1 0 0 4194304 0 0 0 0 0 537001984 0 128 0 2147483648 0 0 0 256 0 1073774592 256 134217760 0 0 0 134217728 0 0 0 0 0 256 0 0 0 32 0 32 134217728 0 0 1073741888 0 0 0 4096 0 0 262144 67108864 128 0 0 0 0 4195328 0 0 1024 8 256 0 0 0 1 0 2048 32768 0 0 1073741824 8 280 8192 512 1073741824 0 16384 512 268435456 0 0 0 0 0 0 0 0 0 0 524288 0 131200 0 0 0 0 1024 33554432 0 0 2099200 1 0 8388608 4 0 0 0 0 0 0 0 0 8192 1048576 4 33554432 4194304 0 0 2147483648 0 0 16 0 0 64 131200 0 2048 33554432 1073741824 0 32768 524352 0 0 8192 268443648 0 32768 4096 0 0 0 4194304 0 0 0 0 134217728 0 131072 0 0 0 0 0 0 0 0 33554432 0 0 33554432 536936456 2097152 16777216 2048 0 1073741857 0 1048576 524288 8192 0 0 0 0 0 4096 0 16 2097152 0 0 0 0 0 0 0 0 0 0 0 67108864 131072 16384 0 0 0 131072 768 0 536887296 0 0 0 268435456 0 67108864 2 32768 4194304 0 2147483648 0 0 1 0 0 2097152 0 1048576 0 0 0 0 0 0 262144 0 0 0 0 0 0 0 0 67108864 0 0 0 1073741824 8192 0 32768 0 657408 0 1056 65536 0 0 2048 1048608 0 0 0 0 4194304 0 268435456 0 0 32896 524288 0 0 0 0 0 0 0 0 8390656 2048 1073742080 0 0 0 128 4096 0 524288 1048576 0 0 0 0 512 0 134348800 0 268435456 0 64 0 32 32768 65 0 67108872 264 0 0 0 0 0 0 0 16777216 0 16 32 0 0 0 0 0 0 256 16 0 0 0 0 512 0 0 0 0 1073742080 2080 0 0 0 536870912 0 0 268435456 1048584 1082138624 128 0 0 8 0 0 0 0 0 0 0 0 2147778560 0 268435456 0 268435456 0 32 0 0 0 1073741828 2147500032 0 0 1 0 0 0 0 0 0 0 0 0 16777216 1179648 128 16777216 128 0 4198400 128 2048 0 2097152 1342210048 16384 134217728 0 0 0 2097152 0 0 32768 64 0 1024 0 0 0 0 0 6 0 0 67108864 0 0 0 512 0 0 0 65536 2097152 0 0 0 0 0 0 0 0 0 0 0 0 4194304 2147483648 0 0 8390144 16777216 0 4 0 0 1048576 0 0 2147745792 0 0 268435456 0 0 256 8192 0 0 262144 0 0 0 65536 0 0 8192 0 0 4096 4096 131200 0 0 16777221 256 0 4194304 0 0 0 536870912 0 0 0 134217728 0 0 67108928 0 0 0 0 4 0 0 65664 0 0 64 0 0 4096 4096 0 0 0 0 0 0 1073741824 0 33024 0 262144 268439552 1 0 513 0 131072 0 0 0 65536 524288 0 0 0 2048 4 24576 3 0 536870912 524288 0 0 536870912 67108864 0 0 32 0 0 0 0 1024 0 0 1073774592 0 1073741825 8192 268435456 0 8 524290 0 1 0 0 0 0 0 0 0 0 2147483648 65536 0 2097152 2147483648 1040 0 1048576 524288 0 0 0 16 67108864 0 0 0 0 2 0 0 0 0 0 0 0 67108880 0 0 256 0 1048576 8448 73729 0 8388608 67108864 0 16777216 0 0 262144 0 4 4194304 0 0 2101248 0 0 2048 0 1082130432 0 0 256 16777216 2048 524288 0 0 0 0 4096 0 0 0 0 0 0 2048 4 0 0 33554432 0 1024 0 0 0 0 69206016 0 0 131072 0 128 0 0 128 16384 0 536936448 16 0 4199424 0 8388640 67108864 0 0 0 0 262144 2048 4 32 0 0 4096 16777216 0 0 0 1073741824 0 0 8388608 16777216 2048 0 16777216 0 0 0 4096 0 0 0 33685504 20971520 1024 0 4 0 0 0 2048 2147483648 0 0 0 1048576 2097152 0 0 2 0 128 0 0 128 0 8 536936448 0 0 0 0 1 0 128 536875008 8192 0 402653184 4 1073741824 262146 2048 0 33554432 0 524416 0 33554432 0 16640 0 1024 0 0 0 0 536870912 0 0 0 0 262144 0 8192 262144 0 0 0 0 32768 0 0 2147483648 8 0 0 0 32768 0 8192 0 0 0 8 0 0 4194304 2147483649 0 0 0 1048576 0 4194336 0 8192 262144 0 0 0 2 0 0 0 1073741824 8192 1024 0 1032 0 0 0 1048584 0 131104 0 0 0 0 0 67108864 0 0 268435456 0 0 12582912 536870912 67108864 0 0 0 8 0 0 16384 0 2048 4096 0 8388608 0 536870912 0 0 4096 131072 1 0 16779264 0 2147483648 0 65537 0 0 0 0 0 67108864 163840 4096 0 532 0 0 0 0 0 0 0 4194304 0 0 2147483648 0 0 0 2 64 32768 0 0 0 2147485696 268435456 0 0 0 0 0 0 67108864 2 0 268435456 0 2097152 0 0 0 1 0 0 0 0 0 1 20480 128 0 536870928 0 4194304 0 524288 16384 33554432 16384 0 33554432 33554432 0 0 0 0 512 0 0 1074798592 16777216 0 0 0 0 0 0 0 33554432 64 16384 0 0 2147483648 0 0 0 0 0 0 0 256 0 0 0 0 0 0 536870912 0 0 1056768 0 0 0 4 268435456 2048 0 0 4 1024 0 8 0 0 1056768 8519680 1 128 786432 2147483648 32768 0 0 0 4227072 12288 0 256 0 67108864 0 0 0 65536 2147483648 0 0 0 0 0 0 131072 8392720 0 268435456 32768 0 0 4096 16 0 0 2147483648 0 0 0 0 4112 0 0 33554432 33554432 0 0 0 0 0 0 8192 0 0 0 0 0 0 8192 0 4 150994944 0 16777216 1073741824 0 0 0 0 0 64 0 0 0 1073741824 0 0 1073741824 0 402784256 0 33554432 8454144 0 0 64 0 0 0 0 21233680 16384 0 0 0 0 8 8224 4194304 33554432 0 0 0 16777216 65552 0 0 1073741824 0 0 0 0 4194304 0 0 33554432 4194304 0 0 32 0 1048576 32768 0 0 0 0 1024 0 0 0 33554432 0 512 0 2147483648 0 0 0 4194304 0 0 4194304 0 8192 2147614720 1024 0 0 1074790448 0 0 0 0 0 0 536870912 0 33554448 0 0 0 4 20971520 0 0 0 4096 0 32768 2147483648 0 128 134217728 0 0 0 0 131072 16 2147483648 0 1024 2147483648 0 4224 0 8388608 1 0 524288 0 0 0 16384 0 0 0 524288 0 0 131072 1 8192 32 167772160 2097152 65536 2080 0 0 0 268435456 0 16 64 285212672 0 0 0 0 0 0 0 0 67371008 0 0 0 0 67108864 8388608 0 0 0 0 0 2147483648 0 0 131072 266240 1073741824 0 0 1040 262144 0 0 0 0 0 0 0 33554432 0 0 18688 131072 0 16384 0 0 0 0 0 0 256 0 0 2147483648 131072 16384 1048576 0 32770 128 0 1 0 4 262144 0 0 0 0 0 4096 0 4 0 1073741824 0 67108864 0 0 0 0 8208 131072 0 131136 1 0 32 1024 524288 512 0 0 268435456 0 0 0 1048576 0 0 0 0 4194304 2097152 0 256 2048 4194304 67108880 0 0 0 0 0 33554432 0 1140850688 2097152 0 268435456 0 536870912 0 0 2097152 0 256 0 0 64 262144 1024 3072 0 1024 0 33554432 0 134217730 0 131072 0 4194304 0 0 2048 0 0 0 0 0 4096 256 134217728 0 0 1048576 0 0 0 8 0 16777216 0 0 8192 0 0 0 0 0 8192 0 0 0 0 0 1056 0 0 4456452 16 0 0 0 2097152 16 0 0 1280 33554432 0 0 16 67108864 8192 4 2048 0 0 0 0 0 128 0 0 0 4194304 0 0 0 524292 0 524288 8650752
is_linear=0
shrinkage=0.1


Tree=5
num_leaves=45
num_cat=37
split_feature=2 2 13 1 2 13 13 2 13 13 13 13 13 13 13 13 13 13 13 1 13 13 2 13 13 13 13 17 13 13 13 13 13 13 13 13 13 13 16 13 13 13 13 13
split_gain=870.711 141.731 189.907 133.055 215.029 204.086 148.646 143.674 231.31 194.201 129.117 124.644 115.835 110.363 105.003 96.2458 95.5984 88.6154 87.5479 87.4008 179.633 117.541 82.2276 99.9673 79.2739 78.9394 74.5652 68.1629 72.6712 68.234 65.487 61.5342 61.0685 59.9942 58.3018 57.7664 56.9784 56.623 56.6048 76.8349 65.295 50.4353 48.0396 47.6902
threshold=26.500000000000004 99.500000000000014 0 1.0000000180025095e-35 3021.0000000000005 1 2 1262.0000000000002 3 4 5 6 7 8 9 10 11 12 13 1.0000000180025095e-35 14 15 6.5000000000000009 16 17 18 19 20 21 22 23 24 25 26 27 28 29 30 31 32 33 34 35 36
decision_type=10 10 9 8 10 9 9 10 9 9 9 9 9 9 9 9 9 9 9 8 9 9 10 9 9 9 9 9 9 9 9 9 9 9 9 9 9 9 1 9 9 9 9 9
left_child=10 2 -2 4 6 -6 -3 8 -5 -9 -1 -10 -7 -4 -11 -14 -13 -8 -15 20 -20 -21 34 -24 -17 -23 -22 28 -16 -29 -18 -32 -28 -25 -12 -27 -35 -19 39 -39 -40 -37 -43 -42
right_child=1 3 13 7 5 12 17 9 11 14 22 16 15 18 27 24 30 37 19 21 26 25 23 33 -26 35 32 29 -30 -31 31 -33 -34 36 -36 41 -38 38 40 -41 43 42 -44 -45
leaf_value=0.066386623531587141 0.093409852903809765 0.076953272819402091 0.07507788894661889 -0.041712025149652304 0.06931600324350877 0.063799259339534412 -0.05843639186519109 -0.13342986123887199 0.086290764587665048 -0.09925627790267165 0.03846695958484448 -0.035677090431324547 0.047344218716054487 0.070096786952984935 -0.071326621658872491 0.023816872868362593 -0.046796025488781749 0.058008472467988452 0.1109573269699959 0.078383963829400494 0.071496418122113659 0.059350716379165384 0.072332532354854526 0.068641710110466048 -0.12241153623127748 0.053978972770785505 0.076286813558978595 -0.044629982968292591 0.047689847810017033 0.082129502878995148 -0.031336341477601865 0.026520797741534527 -0.070996547610471375 0.029373780787121408 -0.13174405544655868 0.043166708267887405 -0.093414801363737046 -0.08601077378032472 0.059648505400027946 0.055780914316248945 0.044684051001984575 0.031893942868176928 -0.076753480775247407 -0.01209123097134817
leaf_weight=51.63448142260313 134.76867124903947 276.07569532468915 93.832840466871858 651.09413578081876 105.37821433320642 47.58316906914115 218.12999448087066 46.361480597406626 271.04229509737343 33.431057406589389 22.802937129512429 307.9744342379272 42.650057330727577 72.56917115021497 63.502045813947916 44.200538801029325 128.14792279247195 187.58245154283941 103.035271525383 60.438162674196064 47.598281681537628 49.987905841320753 42.084707098081708 22.346073650754988 406.78324335813522 36.332221746444702 25.172188114374876 42.494690917432308 162.37060838192701 914.77234712988138 186.89802265167236 3785.6086498731747 249.53539214842021 41.541716256178916 407.33236905280501 36.924583294428885 565.28675347194076 35.343954434618354 143.53151400201023 313.01310532726347 150.3225442878902 42.076520493254066 987.68253387743607 1973.6640684898011
leaf_count=1372 3554 6230 3473 37612 3464 1829 11139 1451 6315 1239 1739 13395 2084 2731 2337 2489 5916 5856 2518 2349 1888 1827 2312 1555 48229 1352 648 1166 4235 18781 8047 120833 19398 2739 77861 2065 82799 1404 3838 8505 4174 2210 85933 79109
internal_value=4.52238e-11 0.00768287 -0.0171567 0.0122556 -0.00227283 -0.0550023 0.00806619 0.0209464 0.0137615 0.0512734 -0.0831429 0.0215228 -0.0790283 -0.0257858 0.0589245 -0.0937894 0.0173546 0.00151244 -0.0317201 -0.0366266 0.00215643 -0.0505229 -0.0899391 -0.0688834 -0.107874 -0.0574614 -0.0349824 0.0641886 0.0126241 0.0760992 0.0214145 0.0237269 -0.0552951 -0.0782353 -0.124889 -0.0632409 -0.0846691 0.00636804 0.00245813 0.0393962 -0.0033647 -0.0676978 -0.07205 -0.00788247
internal_weight=13630.9 12477.9 1939.95 10538 3944.26 646.595 3297.66 6593.7 5330.77 1262.93 1153.03 4679.67 541.217 1805.19 1216.57 493.634 4408.63 3021.59 1711.35 1638.78 425.341 1213.44 1101.39 671.259 450.984 1153 322.306 1183.14 225.873 957.267 4100.65 3972.51 274.708 629.175 430.135 1103.02 606.828 2803.46 2615.88 348.357 2267.52 1066.68 1029.76 2123.99
internal_count=700000 529623 129946 399677 178350 58095 120255 221327 192118 29209 170377 154506 54631 126392 27758 52802 148191 114025 122919 120188 24452 95736 169005 89405 50718 93387 21934 26519 6572 19947 134796 128880 20046 87093 79600 91560 85538 102886 97030 9909 87121 90208 88143 83283
cat_boundaries=0 61 117 179 240 301 362 419 479 541 603 659 721 777 838 900 960 1022 1084 1146 1208 1209 1271 1332 1394 1456 1516 1578 1639 1701 1763 1825 1826 1887 1947 2009 2067 2128
